<?xml version="1.0"?>
<opencv_storage>
<cascade>
  <stageType>BOOST</stageType>
  <featureType>HAAR</featureType>
  <height>8</height>
  <width>8</width>
  <stageParams>
    <boostType>GAB</boostType>
    <minHitRate>9.9500000476837158e-01</minHitRate>
    <maxFalseAlarm>5.0000000000000000e-01</maxFalseAlarm>
    <weightTrimRate>9.4999999999999996e-01</weightTrimRate>
    <maxDepth>1</maxDepth>
    <maxWeakCount>100</maxWeakCount></stageParams>
  <featureParams>
    <maxCatCount>0</maxCatCount>
    <featSize>1</featSize>
    <mode>BASIC</mode></featureParams>
  <stageNum>40</stageNum>
  <stages>
    <!-- stage 0 -->
    <_>
      <maxWeakCount>2</maxWeakCount>
      <stageThreshold>-1.7215986549854279e-01</stageThreshold>
      <weakClassifiers>
        <_>
          <internalNodes>
            0 -1 241 -1.6938492655754089e-01</internalNodes>
          <leafValues>
            -9.4666665792465210e-01 7.5999999046325684e-01</leafValues></_>
        <_>
          <internalNodes>
            0 -1 98 -1.2954159080982208e-01</internalNodes>
          <leafValues>
            7.7450680732727051e-01 -8.4893429279327393e-01</leafValues></_></weakClassifiers></_>
    <!-- stage 1 -->
    <_>
      <maxWeakCount>4</maxWeakCount>
      <stageThreshold>-5.5372506380081177e-01</stageThreshold>
      <weakClassifiers>
        <_>
          <internalNodes>
            0 -1 204 -2.2278770804405212e-01</internalNodes>
          <leafValues>
            -6.6315788030624390e-01 7.9512196779251099e-01</leafValues></_>
        <_>
          <internalNodes>
            0 -1 69 -4.2709253728389740e-02</internalNodes>
          <leafValues>
            6.3119632005691528e-01 -6.8837422132492065e-01</leafValues></_>
        <_>
          <internalNodes>
            0 -1 252 -1.1520680785179138e-01</internalNodes>
          <leafValues>
            -9.2106676101684570e-01 3.9552888274192810e-01</leafValues></_>
        <_>
          <internalNodes>
            0 -1 165 -7.7639515511691570e-03</internalNodes>
          <leafValues>
            4.0227818489074707e-01 -7.9456704854965210e-01</leafValues></_></weakClassifiers></_>
    <!-- stage 2 -->
    <_>
      <maxWeakCount>4</maxWeakCount>
      <stageThreshold>-8.9244854450225830e-01</stageThreshold>
      <weakClassifiers>
        <_>
          <internalNodes>
            0 -1 237 -6.8099528551101685e-02</internalNodes>
          <leafValues>
            -7.5824177265167236e-01 8.0861246585845947e-01</leafValues></_>
        <_>
          <internalNodes>
            0 -1 278 3.2701501622796059e-03</internalNodes>
          <leafValues>
            -4.4835340976715088e-01 7.5018399953842163e-01</leafValues></_>
        <_>
          <internalNodes>
            0 -1 204 -1.6663287580013275e-01</internalNodes>
          <leafValues>
            -4.0759482979774475e-01 8.6649507284164429e-01</leafValues></_>
        <_>
          <internalNodes>
            0 -1 260 1.0668542236089706e-02</internalNodes>
          <leafValues>
            -4.4366282224655151e-01 7.2174149751663208e-01</leafValues></_></weakClassifiers></_>
    <!-- stage 3 -->
    <_>
      <maxWeakCount>5</maxWeakCount>
      <stageThreshold>-7.4043285846710205e-01</stageThreshold>
      <weakClassifiers>
        <_>
          <internalNodes>
            0 -1 237 -5.4322950541973114e-02</internalNodes>
          <leafValues>
            -5.3225809335708618e-01 9.4318181276321411e-01</leafValues></_>
        <_>
          <internalNodes>
            0 -1 102 7.3916628956794739e-02</internalNodes>
          <leafValues>
            6.2363642454147339e-01 -6.7101705074310303e-01</leafValues></_>
        <_>
          <internalNodes>
            0 -1 129 -4.0258720517158508e-01</internalNodes>
          <leafValues>
            -8.2918667793273926e-01 5.8008867502212524e-01</leafValues></_>
        <_>
          <internalNodes>
            0 -1 252 -5.6202918291091919e-02</internalNodes>
          <leafValues>
            -3.7641638517379761e-01 9.1356492042541504e-01</leafValues></_>
        <_>
          <internalNodes>
            0 -1 106 -2.6867443695664406e-02</internalNodes>
          <leafValues>
            3.7379187345504761e-01 -9.3181407451629639e-01</leafValues></_></weakClassifiers></_>
    <!-- stage 4 -->
    <_>
      <maxWeakCount>3</maxWeakCount>
      <stageThreshold>-7.2528523206710815e-01</stageThreshold>
      <weakClassifiers>
        <_>
          <internalNodes>
            0 -1 163 -2.7526152133941650e-01</internalNodes>
          <leafValues>
            -6.8627452850341797e-01 8.5858583450317383e-01</leafValues></_>
        <_>
          <internalNodes>
            0 -1 105 -2.4556359648704529e-01</internalNodes>
          <leafValues>
            -9.0051960945129395e-01 4.7470492124557495e-01</leafValues></_>
        <_>
          <internalNodes>
            0 -1 71 -5.3733795881271362e-02</internalNodes>
          <leafValues>
            8.6150884628295898e-01 -3.7918838858604431e-01</leafValues></_></weakClassifiers></_>
    <!-- stage 5 -->
    <_>
      <maxWeakCount>3</maxWeakCount>
      <stageThreshold>-7.3237043619155884e-01</stageThreshold>
      <weakClassifiers>
        <_>
          <internalNodes>
            0 -1 136 -1.5777498483657837e-03</internalNodes>
          <leafValues>
            8.4541064500808716e-01 -8.0645161867141724e-01</leafValues></_>
        <_>
          <internalNodes>
            0 -1 270 2.8957502916455269e-02</internalNodes>
          <leafValues>
            -5.9954500198364258e-01 8.0587649345397949e-01</leafValues></_>
        <_>
          <internalNodes>
            0 -1 182 -1.1981461197137833e-01</internalNodes>
          <leafValues>
            -5.8701467514038086e-01 6.7362618446350098e-01</leafValues></_></weakClassifiers></_>
    <!-- stage 6 -->
    <_>
      <maxWeakCount>3</maxWeakCount>
      <stageThreshold>-4.2333921790122986e-01</stageThreshold>
      <weakClassifiers>
        <_>
          <internalNodes>
            0 -1 184 -2.2675102949142456e-01</internalNodes>
          <leafValues>
            -9.3333333730697632e-01 6.4999997615814209e-01</leafValues></_>
        <_>
          <internalNodes>
            0 -1 201 -1.3335865736007690e-01</internalNodes>
          <leafValues>
            -6.6941815614700317e-01 6.9739776849746704e-01</leafValues></_>
        <_>
          <internalNodes>
            0 -1 255 6.1872459948062897e-02</internalNodes>
          <leafValues>
            -4.0392106771469116e-01 8.4660452604293823e-01</leafValues></_></weakClassifiers></_>
    <!-- stage 7 -->
    <_>
      <maxWeakCount>4</maxWeakCount>
      <stageThreshold>-9.0578663349151611e-01</stageThreshold>
      <weakClassifiers>
        <_>
          <internalNodes>
            0 -1 137 -3.1965591013431549e-02</internalNodes>
          <leafValues>
            6.7543858289718628e-01 -7.5000000000000000e-01</leafValues></_>
        <_>
          <internalNodes>
            0 -1 269 3.5391107201576233e-02</internalNodes>
          <leafValues>
            -5.1894158124923706e-01 7.0764052867889404e-01</leafValues></_>
        <_>
          <internalNodes>
            0 -1 36 -1.6748746857047081e-02</internalNodes>
          <leafValues>
            6.3352400064468384e-01 -4.4479238986968994e-01</leafValues></_>
        <_>
          <internalNodes>
            0 -1 59 -2.0475966855883598e-02</internalNodes>
          <leafValues>
            8.0794733762741089e-01 -3.1556198000907898e-01</leafValues></_></weakClassifiers></_>
    <!-- stage 8 -->
    <_>
      <maxWeakCount>6</maxWeakCount>
      <stageThreshold>-9.1174691915512085e-01</stageThreshold>
      <weakClassifiers>
        <_>
          <internalNodes>
            0 -1 273 1.2107761576771736e-02</internalNodes>
          <leafValues>
            -4.1573032736778259e-01 6.4928907155990601e-01</leafValues></_>
        <_>
          <internalNodes>
            0 -1 210 -1.1834016442298889e-01</internalNodes>
          <leafValues>
            -3.2463446259498596e-01 7.3177331686019897e-01</leafValues></_>
        <_>
          <internalNodes>
            0 -1 74 4.0430650115013123e-02</internalNodes>
          <leafValues>
            -1.6649539768695831e-01 8.9081567525863647e-01</leafValues></_>
        <_>
          <internalNodes>
            0 -1 77 -1.6398510336875916e-01</internalNodes>
          <leafValues>
            -4.6808797121047974e-01 4.4150653481483459e-01</leafValues></_>
        <_>
          <internalNodes>
            0 -1 65 6.2567908316850662e-03</internalNodes>
          <leafValues>
            -3.0533263087272644e-01 7.3420584201812744e-01</leafValues></_>
        <_>
          <internalNodes>
            0 -1 243 1.0505609214305878e-02</internalNodes>
          <leafValues>
            -2.9648557305335999e-01 6.2245398759841919e-01</leafValues></_></weakClassifiers></_>
    <!-- stage 9 -->
    <_>
      <maxWeakCount>10</maxWeakCount>
      <stageThreshold>-6.8328768014907837e-01</stageThreshold>
      <weakClassifiers>
        <_>
          <internalNodes>
            0 -1 210 -1.9054040312767029e-01</internalNodes>
          <leafValues>
            -4.8051947355270386e-01 6.1434978246688843e-01</leafValues></_>
        <_>
          <internalNodes>
            0 -1 37 -1.1262330412864685e-01</internalNodes>
          <leafValues>
            6.2333005666732788e-01 -2.3958641290664673e-01</leafValues></_>
        <_>
          <internalNodes>
            0 -1 263 1.0281606018543243e-01</internalNodes>
          <leafValues>
            -2.4292701482772827e-01 5.9957635402679443e-01</leafValues></_>
        <_>
          <internalNodes>
            0 -1 282 2.7323294430971146e-02</internalNodes>
          <leafValues>
            -2.4483951926231384e-01 5.9952539205551147e-01</leafValues></_>
        <_>
          <internalNodes>
            0 -1 64 -8.2547049969434738e-03</internalNodes>
          <leafValues>
            3.7193655967712402e-01 -4.1806325316429138e-01</leafValues></_>
        <_>
          <internalNodes>
            0 -1 128 -2.7011655271053314e-02</internalNodes>
          <leafValues>
            4.5130476355552673e-01 -2.9120224714279175e-01</leafValues></_>
        <_>
          <internalNodes>
            0 -1 52 -2.9075285792350769e-01</internalNodes>
          <leafValues>
            8.7420451641082764e-01 -1.3301883637905121e-01</leafValues></_>
        <_>
          <internalNodes>
            0 -1 225 -1.6476899385452271e-02</internalNodes>
          <leafValues>
            5.7320535182952881e-01 -2.5580063462257385e-01</leafValues></_>
        <_>
          <internalNodes>
            0 -1 158 -1.9275902211666107e-01</internalNodes>
          <leafValues>
            7.3452705144882202e-01 -1.9542503356933594e-01</leafValues></_>
        <_>
          <internalNodes>
            0 -1 42 -3.9886903762817383e-01</internalNodes>
          <leafValues>
            -7.3168992996215820e-01 2.3896424472332001e-01</leafValues></_></weakClassifiers></_>
    <!-- stage 10 -->
    <_>
      <maxWeakCount>6</maxWeakCount>
      <stageThreshold>-8.5843384265899658e-01</stageThreshold>
      <weakClassifiers>
        <_>
          <internalNodes>
            0 -1 207 -1.0191756486892700e-01</internalNodes>
          <leafValues>
            -2.2772277891635895e-01 6.1809045076370239e-01</leafValues></_>
        <_>
          <internalNodes>
            0 -1 139 -1.6748625785112381e-02</internalNodes>
          <leafValues>
            4.0079474449157715e-01 -5.2425521612167358e-01</leafValues></_>
        <_>
          <internalNodes>
            0 -1 115 1.1036240309476852e-01</internalNodes>
          <leafValues>
            -1.9528371095657349e-01 7.9772907495498657e-01</leafValues></_>
        <_>
          <internalNodes>
            0 -1 61 -5.6411940604448318e-02</internalNodes>
          <leafValues>
            6.2535881996154785e-01 -2.7489867806434631e-01</leafValues></_>
        <_>
          <internalNodes>
            0 -1 262 6.5202817320823669e-02</internalNodes>
          <leafValues>
            -3.2202869653701782e-01 5.8966010808944702e-01</leafValues></_>
        <_>
          <internalNodes>
            0 -1 233 -1.8971532583236694e-01</internalNodes>
          <leafValues>
            -3.0725756287574768e-01 4.7965231537818909e-01</leafValues></_></weakClassifiers></_>
    <!-- stage 11 -->
    <_>
      <maxWeakCount>11</maxWeakCount>
      <stageThreshold>-6.4387744665145874e-01</stageThreshold>
      <weakClassifiers>
        <_>
          <internalNodes>
            0 -1 230 -7.8733381815254688e-04</internalNodes>
          <leafValues>
            5.4185020923614502e-01 -3.1506848335266113e-01</leafValues></_>
        <_>
          <internalNodes>
            0 -1 17 9.1299507766962051e-03</internalNodes>
          <leafValues>
            -2.8854897618293762e-01 5.4794466495513916e-01</leafValues></_>
        <_>
          <internalNodes>
            0 -1 181 -4.5246876776218414e-02</internalNodes>
          <leafValues>
            -3.8891574740409851e-01 3.7474647164344788e-01</leafValues></_>
        <_>
          <internalNodes>
            0 -1 214 9.9627289455384016e-04</internalNodes>
          <leafValues>
            2.3191101849079132e-01 -7.1775251626968384e-01</leafValues></_>
        <_>
          <internalNodes>
            0 -1 4 7.0318244397640228e-03</internalNodes>
          <leafValues>
            -3.6023375391960144e-01 4.5552843809127808e-01</leafValues></_>
        <_>
          <internalNodes>
            0 -1 190 1.5782293677330017e-01</internalNodes>
          <leafValues>
            -3.1225401163101196e-01 6.5826904773712158e-01</leafValues></_>
        <_>
          <internalNodes>
            0 -1 126 -6.9317981600761414e-02</internalNodes>
          <leafValues>
            2.3960879445075989e-01 -7.6217782497406006e-01</leafValues></_>
        <_>
          <internalNodes>
            0 -1 123 -1.6072531044483185e-01</internalNodes>
          <leafValues>
            6.5776705741882324e-01 -2.5720366835594177e-01</leafValues></_>
        <_>
          <internalNodes>
            0 -1 284 -4.5077493414282799e-03</internalNodes>
          <leafValues>
            -6.4890211820602417e-01 2.9271849989891052e-01</leafValues></_>
        <_>
          <internalNodes>
            0 -1 174 1.2192606227472425e-03</internalNodes>
          <leafValues>
            2.5289565324783325e-01 -5.3755593299865723e-01</leafValues></_>
        <_>
          <internalNodes>
            0 -1 22 -3.0626952648162842e-01</internalNodes>
          <leafValues>
            6.3045001029968262e-01 -2.7776470780372620e-01</leafValues></_></weakClassifiers></_>
    <!-- stage 12 -->
    <_>
      <maxWeakCount>7</maxWeakCount>
      <stageThreshold>-6.6594624519348145e-01</stageThreshold>
      <weakClassifiers>
        <_>
          <internalNodes>
            0 -1 182 -1.2098918855190277e-01</internalNodes>
          <leafValues>
            -3.4246575832366943e-01 5.5066078901290894e-01</leafValues></_>
        <_>
          <internalNodes>
            0 -1 279 1.3097280636429787e-02</internalNodes>
          <leafValues>
            -2.4815124273300171e-01 8.1319773197174072e-01</leafValues></_>
        <_>
          <internalNodes>
            0 -1 205 6.6486489959061146e-04</internalNodes>
          <leafValues>
            3.2490506768226624e-01 -7.6057219505310059e-01</leafValues></_>
        <_>
          <internalNodes>
            0 -1 25 -6.1020232737064362e-02</internalNodes>
          <leafValues>
            5.3802078962326050e-01 -2.9393604397773743e-01</leafValues></_>
        <_>
          <internalNodes>
            0 -1 151 3.0400928109884262e-02</internalNodes>
          <leafValues>
            -2.1563166379928589e-01 6.6558337211608887e-01</leafValues></_>
        <_>
          <internalNodes>
            0 -1 200 -2.5844341143965721e-04</internalNodes>
          <leafValues>
            2.6605680584907532e-01 -5.6364017724990845e-01</leafValues></_>
        <_>
          <internalNodes>
            0 -1 67 -8.7668262422084808e-03</internalNodes>
          <leafValues>
            6.7900049686431885e-01 -2.0824141800403595e-01</leafValues></_></weakClassifiers></_>
    <!-- stage 13 -->
    <_>
      <maxWeakCount>10</maxWeakCount>
      <stageThreshold>-1.0494953393936157e+00</stageThreshold>
      <weakClassifiers>
        <_>
          <internalNodes>
            0 -1 3 -5.4681502282619476e-02</internalNodes>
          <leafValues>
            -2.8571429848670959e-01 5.2173912525177002e-01</leafValues></_>
        <_>
          <internalNodes>
            0 -1 110 -1.4861351251602173e-01</internalNodes>
          <leafValues>
            -6.0305333137512207e-01 2.9849645495414734e-01</leafValues></_>
        <_>
          <internalNodes>
            0 -1 260 3.1138557940721512e-02</internalNodes>
          <leafValues>
            -4.2915180325508118e-01 4.4203504920005798e-01</leafValues></_>
        <_>
          <internalNodes>
            0 -1 280 -8.5678678005933762e-03</internalNodes>
          <leafValues>
            6.2126106023788452e-01 -2.8125610947608948e-01</leafValues></_>
        <_>
          <internalNodes>
            0 -1 138 -1.2219061702489853e-01</internalNodes>
          <leafValues>
            2.3095048964023590e-01 -5.2764040231704712e-01</leafValues></_>
        <_>
          <internalNodes>
            0 -1 276 -2.6330943219363689e-03</internalNodes>
          <leafValues>
            7.7630156278610229e-01 -1.7087876796722412e-01</leafValues></_>
        <_>
          <internalNodes>
            0 -1 208 1.5856358408927917e-01</internalNodes>
          <leafValues>
            -1.3070823252201080e-01 8.5870802402496338e-01</leafValues></_>
        <_>
          <internalNodes>
            0 -1 198 -9.6673130989074707e-02</internalNodes>
          <leafValues>
            -5.2927207946777344e-01 2.5682762265205383e-01</leafValues></_>
        <_>
          <internalNodes>
            0 -1 11 -2.9997531324625015e-02</internalNodes>
          <leafValues>
            -4.0410783886909485e-01 3.4764888882637024e-01</leafValues></_>
        <_>
          <internalNodes>
            0 -1 289 6.2706270255148411e-03</internalNodes>
          <leafValues>
            -2.9477232694625854e-01 5.3955084085464478e-01</leafValues></_></weakClassifiers></_>
    <!-- stage 14 -->
    <_>
      <maxWeakCount>7</maxWeakCount>
      <stageThreshold>-2.3197506368160248e-01</stageThreshold>
      <weakClassifiers>
        <_>
          <internalNodes>
            0 -1 103 -1.8345423042774200e-02</internalNodes>
          <leafValues>
            4.3884891271591187e-01 -1.</leafValues></_>
        <_>
          <internalNodes>
            0 -1 125 -3.7845253944396973e-01</internalNodes>
          <leafValues>
            -4.4241422414779663e-01 4.8851358890533447e-01</leafValues></_>
        <_>
          <internalNodes>
            0 -1 242 -2.3112553171813488e-03</internalNodes>
          <leafValues>
            4.9178081750869751e-01 -3.9143931865692139e-01</leafValues></_>
        <_>
          <internalNodes>
            0 -1 266 4.0721401572227478e-02</internalNodes>
          <leafValues>
            -3.2192221283912659e-01 5.9099322557449341e-01</leafValues></_>
        <_>
          <internalNodes>
            0 -1 141 -6.3036561012268066e-01</internalNodes>
          <leafValues>
            -8.3526694774627686e-01 2.3013235628604889e-01</leafValues></_>
        <_>
          <internalNodes>
            0 -1 117 5.9971243143081665e-02</internalNodes>
          <leafValues>
            -2.9447335004806519e-01 6.8703317642211914e-01</leafValues></_>
        <_>
          <internalNodes>
            0 -1 81 -1.4351163804531097e-01</internalNodes>
          <leafValues>
            7.5063014030456543e-01 -2.2915118932723999e-01</leafValues></_></weakClassifiers></_>
    <!-- stage 15 -->
    <_>
      <maxWeakCount>12</maxWeakCount>
      <stageThreshold>-7.3978275060653687e-01</stageThreshold>
      <weakClassifiers>
        <_>
          <internalNodes>
            0 -1 0 3.1380248256027699e-03</internalNodes>
          <leafValues>
            5.2301257848739624e-01 -4.0983605384826660e-01</leafValues></_>
        <_>
          <internalNodes>
            0 -1 276 2.6150990277528763e-02</internalNodes>
          <leafValues>
            -1.8236522376537323e-01 6.3685226440429688e-01</leafValues></_>
        <_>
          <internalNodes>
            0 -1 78 -4.0210419893264771e-01</internalNodes>
          <leafValues>
            -4.0471029281616211e-01 3.1372135877609253e-01</leafValues></_>
        <_>
          <internalNodes>
            0 -1 218 -6.0692243278026581e-02</internalNodes>
          <leafValues>
            8.6849135160446167e-01 -1.5870788693428040e-01</leafValues></_>
        <_>
          <internalNodes>
            0 -1 219 1.7769793048501015e-02</internalNodes>
          <leafValues>
            -1.8406324088573456e-01 5.6429183483123779e-01</leafValues></_>
        <_>
          <internalNodes>
            0 -1 256 2.0214661955833435e-01</internalNodes>
          <leafValues>
            -1.1483892053365707e-01 9.1354960203170776e-01</leafValues></_>
        <_>
          <internalNodes>
            0 -1 284 -4.7341776080429554e-03</internalNodes>
          <leafValues>
            -6.1778032779693604e-01 2.2094959020614624e-01</leafValues></_>
        <_>
          <internalNodes>
            0 -1 177 -1.0506026446819305e-02</internalNodes>
          <leafValues>
            2.5838080048561096e-01 -5.1365572214126587e-01</leafValues></_>
        <_>
          <internalNodes>
            0 -1 15 -5.8752233162522316e-03</internalNodes>
          <leafValues>
            -5.4576623439788818e-01 2.2966171801090240e-01</leafValues></_>
        <_>
          <internalNodes>
            0 -1 112 -3.4421834349632263e-01</internalNodes>
          <leafValues>
            -3.3257740736007690e-01 3.1992506980895996e-01</leafValues></_>
        <_>
          <internalNodes>
            0 -1 242 -8.1397946923971176e-03</internalNodes>
          <leafValues>
            5.3518897294998169e-01 -2.5585752725601196e-01</leafValues></_>
        <_>
          <internalNodes>
            0 -1 152 1.0731735266745090e-02</internalNodes>
          <leafValues>
            -2.1574141085147858e-01 5.2664452791213989e-01</leafValues></_></weakClassifiers></_>
    <!-- stage 16 -->
    <_>
      <maxWeakCount>7</maxWeakCount>
      <stageThreshold>-8.9819580316543579e-01</stageThreshold>
      <weakClassifiers>
        <_>
          <internalNodes>
            0 -1 273 2.6640016585588455e-02</internalNodes>
          <leafValues>
            -2.9310345649719238e-01 7.2826087474822998e-01</leafValues></_>
        <_>
          <internalNodes>
            0 -1 11 7.0179529488086700e-02</internalNodes>
          <leafValues>
            2.7252370119094849e-01 -9.4311928749084473e-01</leafValues></_>
        <_>
          <internalNodes>
            0 -1 108 -5.1887072622776031e-03</internalNodes>
          <leafValues>
            7.3292875289916992e-01 -2.9906934499740601e-01</leafValues></_>
        <_>
          <internalNodes>
            0 -1 104 -7.1808784268796444e-03</internalNodes>
          <leafValues>
            7.0611053705215454e-01 -2.9001843929290771e-01</leafValues></_>
        <_>
          <internalNodes>
            0 -1 45 -3.9824271202087402e-01</internalNodes>
          <leafValues>
            -3.6778357625007629e-01 4.8917022347450256e-01</leafValues></_>
        <_>
          <internalNodes>
            0 -1 111 -1.9752260297536850e-02</internalNodes>
          <leafValues>
            3.2475274801254272e-01 -5.7127809524536133e-01</leafValues></_>
        <_>
          <internalNodes>
            0 -1 243 1.1666929349303246e-02</internalNodes>
          <leafValues>
            -3.7083089351654053e-01 5.3143316507339478e-01</leafValues></_></weakClassifiers></_>
    <!-- stage 17 -->
    <_>
      <maxWeakCount>12</maxWeakCount>
      <stageThreshold>-4.6734943985939026e-01</stageThreshold>
      <weakClassifiers>
        <_>
          <internalNodes>
            0 -1 237 -2.8648750856518745e-02</internalNodes>
          <leafValues>
            1.6759777441620827e-02 8.0165290832519531e-01</leafValues></_>
        <_>
          <internalNodes>
            0 -1 70 -5.8604637160897255e-03</internalNodes>
          <leafValues>
            5.3347283601760864e-01 -2.5624859333038330e-01</leafValues></_>
        <_>
          <internalNodes>
            0 -1 166 -1.2243147939443588e-02</internalNodes>
          <leafValues>
            2.3789793252944946e-01 -5.4492717981338501e-01</leafValues></_>
        <_>
          <internalNodes>
            0 -1 154 -3.0417455360293388e-02</internalNodes>
          <leafValues>
            1.3994553685188293e-01 -8.3320140838623047e-01</leafValues></_>
        <_>
          <internalNodes>
            0 -1 95 2.3835696280002594e-02</internalNodes>
          <leafValues>
            -3.3691120147705078e-01 5.2851223945617676e-01</leafValues></_>
        <_>
          <internalNodes>
            0 -1 13 -1.0434632003307343e-01</internalNodes>
          <leafValues>
            5.7020527124404907e-01 -2.6321429014205933e-01</leafValues></_>
        <_>
          <internalNodes>
            0 -1 14 -9.6738481521606445e-01</internalNodes>
          <leafValues>
            -3.0248355865478516e-01 4.5859265327453613e-01</leafValues></_>
        <_>
          <internalNodes>
            0 -1 243 2.5004697963595390e-03</internalNodes>
          <leafValues>
            -3.4234404563903809e-01 3.7869200110435486e-01</leafValues></_>
        <_>
          <internalNodes>
            0 -1 235 -2.5703730061650276e-03</internalNodes>
          <leafValues>
            2.2762808203697205e-01 -5.3190392255783081e-01</leafValues></_>
        <_>
          <internalNodes>
            0 -1 248 -2.5110758841037750e-02</internalNodes>
          <leafValues>
            -1. 1.4633271098136902e-01</leafValues></_>
        <_>
          <internalNodes>
            0 -1 49 1.9399838522076607e-02</internalNodes>
          <leafValues>
            -2.8823834657669067e-01 5.3736090660095215e-01</leafValues></_>
        <_>
          <internalNodes>
            0 -1 39 3.1133417040109634e-02</internalNodes>
          <leafValues>
            -2.5372806191444397e-01 5.5352652072906494e-01</leafValues></_></weakClassifiers></_>
    <!-- stage 18 -->
    <_>
      <maxWeakCount>7</maxWeakCount>
      <stageThreshold>-5.8073484897613525e-01</stageThreshold>
      <weakClassifiers>
        <_>
          <internalNodes>
            0 -1 191 -3.6710795015096664e-02</internalNodes>
          <leafValues>
            6.1320751905441284e-01 -3.4090909361839294e-01</leafValues></_>
        <_>
          <internalNodes>
            0 -1 170 -2.0492793619632721e-01</internalNodes>
          <leafValues>
            -2.8304857015609741e-01 5.5158305168151855e-01</leafValues></_>
        <_>
          <internalNodes>
            0 -1 3 9.1506205499172211e-02</internalNodes>
          <leafValues>
            2.5211709737777710e-01 -7.0386606454849243e-01</leafValues></_>
        <_>
          <internalNodes>
            0 -1 90 -8.3544984459877014e-02</internalNodes>
          <leafValues>
            -4.8416057229042053e-01 2.6532539725303650e-01</leafValues></_>
        <_>
          <internalNodes>
            0 -1 4 1.1252635158598423e-02</internalNodes>
          <leafValues>
            -3.2906708121299744e-01 4.2989301681518555e-01</leafValues></_>
        <_>
          <internalNodes>
            0 -1 48 -1.1831631883978844e-02</internalNodes>
          <leafValues>
            6.6992175579071045e-01 -2.6349750161170959e-01</leafValues></_>
        <_>
          <internalNodes>
            0 -1 287 1.9010800868272781e-02</internalNodes>
          <leafValues>
            1.2542764842510223e-01 -9.0022003650665283e-01</leafValues></_></weakClassifiers></_>
    <!-- stage 19 -->
    <_>
      <maxWeakCount>13</maxWeakCount>
      <stageThreshold>-3.8140571117401123e-01</stageThreshold>
      <weakClassifiers>
        <_>
          <internalNodes>
            0 -1 250 2.5228437036275864e-02</internalNodes>
          <leafValues>
            -8.9552238583564758e-02 6.7469877004623413e-01</leafValues></_>
        <_>
          <internalNodes>
            0 -1 220 -1.4741078019142151e-02</internalNodes>
          <leafValues>
            7.0375210046768188e-01 -1.3529458642005920e-01</leafValues></_>
        <_>
          <internalNodes>
            0 -1 119 -2.5826302170753479e-01</internalNodes>
          <leafValues>
            -2.7136462926864624e-01 5.0666260719299316e-01</leafValues></_>
        <_>
          <internalNodes>
            0 -1 23 -4.2959091067314148e-01</internalNodes>
          <leafValues>
            3.8466969132423401e-01 -3.1375941634178162e-01</leafValues></_>
        <_>
          <internalNodes>
            0 -1 248 3.3596092835068703e-03</internalNodes>
          <leafValues>
            2.4525028467178345e-01 -5.0646024942398071e-01</leafValues></_>
        <_>
          <internalNodes>
            0 -1 151 8.6903959512710571e-02</internalNodes>
          <leafValues>
            -2.0256502926349640e-01 7.8640240430831909e-01</leafValues></_>
        <_>
          <internalNodes>
            0 -1 27 2.0199829339981079e-01</internalNodes>
          <leafValues>
            2.0168344676494598e-01 -6.8978101015090942e-01</leafValues></_>
        <_>
          <internalNodes>
            0 -1 10 4.4584665447473526e-03</internalNodes>
          <leafValues>
            -2.7998453378677368e-01 4.2770031094551086e-01</leafValues></_>
        <_>
          <internalNodes>
            0 -1 21 -3.7213498353958130e-01</internalNodes>
          <leafValues>
            7.5902348756790161e-01 -1.4366628229618073e-01</leafValues></_>
        <_>
          <internalNodes>
            0 -1 6 -1.2822997570037842e-01</internalNodes>
          <leafValues>
            -3.5384333133697510e-01 4.4070693850517273e-01</leafValues></_>
        <_>
          <internalNodes>
            0 -1 268 3.7146687507629395e-02</internalNodes>
          <leafValues>
            -2.8519773483276367e-01 4.1282695531845093e-01</leafValues></_>
        <_>
          <internalNodes>
            0 -1 242 -2.1244575327727944e-04</internalNodes>
          <leafValues>
            3.3181056380271912e-01 -4.2964342236518860e-01</leafValues></_>
        <_>
          <internalNodes>
            0 -1 212 3.4611234441399574e-03</internalNodes>
          <leafValues>
            2.3396472632884979e-01 -6.7478585243225098e-01</leafValues></_></weakClassifiers></_>
    <!-- stage 20 -->
    <_>
      <maxWeakCount>8</maxWeakCount>
      <stageThreshold>-2.9586145281791687e-01</stageThreshold>
      <weakClassifiers>
        <_>
          <internalNodes>
            0 -1 221 5.3103445097804070e-03</internalNodes>
          <leafValues>
            -1.5217390656471252e-01 5.4807692766189575e-01</leafValues></_>
        <_>
          <internalNodes>
            0 -1 149 1.1293295770883560e-02</internalNodes>
          <leafValues>
            -1.4897300302982330e-01 6.9018000364303589e-01</leafValues></_>
        <_>
          <internalNodes>
            0 -1 76 -2.1624574437737465e-03</internalNodes>
          <leafValues>
            -4.2666241526603699e-01 2.6874628663063049e-01</leafValues></_>
        <_>
          <internalNodes>
            0 -1 100 -4.8118066787719727e-01</internalNodes>
          <leafValues>
            -2.6150625944137573e-01 6.3182616233825684e-01</leafValues></_>
        <_>
          <internalNodes>
            0 -1 43 -4.2534196376800537e-01</internalNodes>
          <leafValues>
            -9.3009406328201294e-01 1.6170082986354828e-01</leafValues></_>
        <_>
          <internalNodes>
            0 -1 239 -5.3107375279068947e-03</internalNodes>
          <leafValues>
            4.4926887750625610e-01 -2.7400648593902588e-01</leafValues></_>
        <_>
          <internalNodes>
            0 -1 91 8.5906777530908585e-03</internalNodes>
          <leafValues>
            -3.4869402647018433e-01 3.8531824946403503e-01</leafValues></_>
        <_>
          <internalNodes>
            0 -1 51 -1.2428811192512512e-01</internalNodes>
          <leafValues>
            7.2411745786666870e-01 -2.4120570719242096e-01</leafValues></_></weakClassifiers></_>
    <!-- stage 21 -->
    <_>
      <maxWeakCount>9</maxWeakCount>
      <stageThreshold>-8.1558865308761597e-01</stageThreshold>
      <weakClassifiers>
        <_>
          <internalNodes>
            0 -1 44 -3.5097980499267578e-01</internalNodes>
          <leafValues>
            -1.2592592835426331e-01 7.0909088850021362e-01</leafValues></_>
        <_>
          <internalNodes>
            0 -1 246 2.0992189645767212e-02</internalNodes>
          <leafValues>
            -1.2304237484931946e-01 7.2212570905685425e-01</leafValues></_>
        <_>
          <internalNodes>
            0 -1 212 -6.6273408010601997e-03</internalNodes>
          <leafValues>
            -4.1188764572143555e-01 3.2302737236022949e-01</leafValues></_>
        <_>
          <internalNodes>
            0 -1 85 2.3444108664989471e-03</internalNodes>
          <leafValues>
            -3.7880915403366089e-01 3.9792719483375549e-01</leafValues></_>
        <_>
          <internalNodes>
            0 -1 248 -6.6444487310945988e-03</internalNodes>
          <leafValues>
            -7.0376867055892944e-01 1.6297271847724915e-01</leafValues></_>
        <_>
          <internalNodes>
            0 -1 121 1.1343860998749733e-02</internalNodes>
          <leafValues>
            2.8162860870361328e-01 -5.6435942649841309e-01</leafValues></_>
        <_>
          <internalNodes>
            0 -1 196 2.7118599414825439e-01</internalNodes>
          <leafValues>
            -1.9912859797477722e-01 7.6676166057586670e-01</leafValues></_>
        <_>
          <internalNodes>
            0 -1 248 2.9353145509958267e-03</internalNodes>
          <leafValues>
            3.0104425549507141e-01 -6.2595379352569580e-01</leafValues></_>
        <_>
          <internalNodes>
            0 -1 68 -4.1870415210723877e-02</internalNodes>
          <leafValues>
            5.6974065303802490e-01 -2.1136753261089325e-01</leafValues></_></weakClassifiers></_>
    <!-- stage 22 -->
    <_>
      <maxWeakCount>12</maxWeakCount>
      <stageThreshold>-6.9592678546905518e-01</stageThreshold>
      <weakClassifiers>
        <_>
          <internalNodes>
            0 -1 178 -1.2669172883033752e-01</internalNodes>
          <leafValues>
            -9.6774190664291382e-02 7.9310345649719238e-01</leafValues></_>
        <_>
          <internalNodes>
            0 -1 172 1.0080805514007807e-03</internalNodes>
          <leafValues>
            2.6157107949256897e-01 -8.1355172395706177e-01</leafValues></_>
        <_>
          <internalNodes>
            0 -1 82 -3.7478852272033691e-01</internalNodes>
          <leafValues>
            -1.7296335101127625e-01 7.8195464611053467e-01</leafValues></_>
        <_>
          <internalNodes>
            0 -1 238 -5.7625130284577608e-04</internalNodes>
          <leafValues>
            3.3720499277114868e-01 -3.9787063002586365e-01</leafValues></_>
        <_>
          <internalNodes>
            0 -1 285 -4.5821744948625565e-02</internalNodes>
          <leafValues>
            3.6583730578422546e-01 -4.4626310467720032e-01</leafValues></_>
        <_>
          <internalNodes>
            0 -1 153 -9.6952766180038452e-03</internalNodes>
          <leafValues>
            5.5413585901260376e-01 -2.4140785634517670e-01</leafValues></_>
        <_>
          <internalNodes>
            0 -1 124 2.1533563733100891e-02</internalNodes>
          <leafValues>
            -2.4215190112590790e-01 5.6974035501480103e-01</leafValues></_>
        <_>
          <internalNodes>
            0 -1 171 4.7480280045419931e-04</internalNodes>
          <leafValues>
            2.0657046139240265e-01 -7.7438086271286011e-01</leafValues></_>
        <_>
          <internalNodes>
            0 -1 112 -2.7591842412948608e-01</internalNodes>
          <leafValues>
            -2.2632779181003571e-01 5.9505200386047363e-01</leafValues></_>
        <_>
          <internalNodes>
            0 -1 278 1.0624216869473457e-02</internalNodes>
          <leafValues>
            -2.9926672577857971e-01 4.7416463494300842e-01</leafValues></_>
        <_>
          <internalNodes>
            0 -1 242 -2.7446828782558441e-02</internalNodes>
          <leafValues>
            7.2151154279708862e-01 -1.4426092803478241e-01</leafValues></_>
        <_>
          <internalNodes>
            0 -1 109 -5.0238627009093761e-03</internalNodes>
          <leafValues>
            3.2906773686408997e-01 -4.4395789504051208e-01</leafValues></_></weakClassifiers></_>
    <!-- stage 23 -->
    <_>
      <maxWeakCount>9</maxWeakCount>
      <stageThreshold>-4.6450099349021912e-01</stageThreshold>
      <weakClassifiers>
        <_>
          <internalNodes>
            0 -1 217 -2.1253073588013649e-02</internalNodes>
          <leafValues>
            1.2727272510528564e-01 8.9999997615814209e-01</leafValues></_>
        <_>
          <internalNodes>
            0 -1 5 1.7353031784296036e-02</internalNodes>
          <leafValues>
            2.6838931441307068e-01 -5.4702717065811157e-01</leafValues></_>
        <_>
          <internalNodes>
            0 -1 122 -1.1210265755653381e-01</internalNodes>
          <leafValues>
            1.4437651634216309e-01 -9.0856480598449707e-01</leafValues></_>
        <_>
          <internalNodes>
            0 -1 145 -1.8445518612861633e-01</internalNodes>
          <leafValues>
            -2.1262638270854950e-01 6.1946535110473633e-01</leafValues></_>
        <_>
          <internalNodes>
            0 -1 227 -1.0942012071609497e-01</internalNodes>
          <leafValues>
            6.2959039211273193e-01 -1.9233101606369019e-01</leafValues></_>
        <_>
          <internalNodes>
            0 -1 2 -3.6174058914184570e-03</internalNodes>
          <leafValues>
            -3.9017009735107422e-01 3.3644482493400574e-01</leafValues></_>
        <_>
          <internalNodes>
            0 -1 11 5.9814691543579102e-02</internalNodes>
          <leafValues>
            1.1504216492176056e-01 -9.6954077482223511e-01</leafValues></_>
        <_>
          <internalNodes>
            0 -1 193 -2.4133641272783279e-02</internalNodes>
          <leafValues>
            4.4208151102066040e-01 -2.6539644598960876e-01</leafValues></_>
        <_>
          <internalNodes>
            0 -1 140 8.3704497665166855e-03</internalNodes>
          <leafValues>
            1.6179189085960388e-01 -7.0601326227188110e-01</leafValues></_></weakClassifiers></_>
    <!-- stage 24 -->
    <_>
      <maxWeakCount>12</maxWeakCount>
      <stageThreshold>-8.0135846138000488e-01</stageThreshold>
      <weakClassifiers>
        <_>
          <internalNodes>
            0 -1 270 3.2343618571758270e-02</internalNodes>
          <leafValues>
            -1.8681319057941437e-01 5.5980861186981201e-01</leafValues></_>
        <_>
          <internalNodes>
            0 -1 211 5.6914956076070666e-04</internalNodes>
          <leafValues>
            2.5102147459983826e-01 -5.8066487312316895e-01</leafValues></_>
        <_>
          <internalNodes>
            0 -1 80 -2.0069704949855804e-01</internalNodes>
          <leafValues>
            -1.8143874406814575e-01 5.7680791616439819e-01</leafValues></_>
        <_>
          <internalNodes>
            0 -1 60 -2.7057377621531487e-02</internalNodes>
          <leafValues>
            3.9719653129577637e-01 -3.1443813443183899e-01</leafValues></_>
        <_>
          <internalNodes>
            0 -1 11 -3.0822224915027618e-02</internalNodes>
          <leafValues>
            -3.0265629291534424e-01 3.1207698583602905e-01</leafValues></_>
        <_>
          <internalNodes>
            0 -1 55 3.3299945294857025e-02</internalNodes>
          <leafValues>
            1.3369674980640411e-01 -6.7751538753509521e-01</leafValues></_>
        <_>
          <internalNodes>
            0 -1 59 -3.6131739616394043e-02</internalNodes>
          <leafValues>
            5.4247349500656128e-01 -1.8956923484802246e-01</leafValues></_>
        <_>
          <internalNodes>
            0 -1 118 -2.2830814123153687e-01</internalNodes>
          <leafValues>
            -3.7385642528533936e-01 2.9015460610389709e-01</leafValues></_>
        <_>
          <internalNodes>
            0 -1 89 -3.8041520118713379e-01</internalNodes>
          <leafValues>
            6.0510671138763428e-01 -1.7994932830333710e-01</leafValues></_>
        <_>
          <internalNodes>
            0 -1 259 5.4862596094608307e-02</internalNodes>
          <leafValues>
            -1.1258645355701447e-01 8.0835902690887451e-01</leafValues></_>
        <_>
          <internalNodes>
            0 -1 186 1.4366483315825462e-02</internalNodes>
          <leafValues>
            1.9191774725914001e-01 -6.1940103769302368e-01</leafValues></_>
        <_>
          <internalNodes>
            0 -1 114 -2.5100048631429672e-02</internalNodes>
          <leafValues>
            6.8477487564086914e-01 -2.0069767534732819e-01</leafValues></_></weakClassifiers></_>
    <!-- stage 25 -->
    <_>
      <maxWeakCount>13</maxWeakCount>
      <stageThreshold>-5.7541990280151367e-01</stageThreshold>
      <weakClassifiers>
        <_>
          <internalNodes>
            0 -1 178 -1.3436713814735413e-01</internalNodes>
          <leafValues>
            -5.3435113281011581e-02 6.3313609361648560e-01</leafValues></_>
        <_>
          <internalNodes>
            0 -1 82 -3.7935727834701538e-01</internalNodes>
          <leafValues>
            -9.1298781335353851e-02 6.9421523809432983e-01</leafValues></_>
        <_>
          <internalNodes>
            0 -1 50 -6.3875392079353333e-02</internalNodes>
          <leafValues>
            6.6980409622192383e-01 -1.4974324405193329e-01</leafValues></_>
        <_>
          <internalNodes>
            0 -1 0 -2.5515637826174498e-03</internalNodes>
          <leafValues>
            -4.7680771350860596e-01 2.5148925185203552e-01</leafValues></_>
        <_>
          <internalNodes>
            0 -1 17 2.2976871579885483e-02</internalNodes>
          <leafValues>
            -2.8979027271270752e-01 4.2472210526466370e-01</leafValues></_>
        <_>
          <internalNodes>
            0 -1 231 -2.2496651858091354e-02</internalNodes>
          <leafValues>
            4.3788942694664001e-01 -2.4664451181888580e-01</leafValues></_>
        <_>
          <internalNodes>
            0 -1 26 -1.0579284280538559e-01</internalNodes>
          <leafValues>
            1.9408778846263885e-01 -7.1453547477722168e-01</leafValues></_>
        <_>
          <internalNodes>
            0 -1 120 -4.9752686172723770e-03</internalNodes>
          <leafValues>
            -3.5438537597656250e-01 3.5099631547927856e-01</leafValues></_>
        <_>
          <internalNodes>
            0 -1 72 -4.6544577926397324e-02</internalNodes>
          <leafValues>
            6.9445872306823730e-01 -1.3704182207584381e-01</leafValues></_>
        <_>
          <internalNodes>
            0 -1 264 1.6279019415378571e-02</internalNodes>
          <leafValues>
            -2.5657308101654053e-01 4.2241644859313965e-01</leafValues></_>
        <_>
          <internalNodes>
            0 -1 57 -3.9499700069427490e-01</internalNodes>
          <leafValues>
            -4.2093899846076965e-01 2.3634807765483856e-01</leafValues></_>
        <_>
          <internalNodes>
            0 -1 59 -2.1081026643514633e-02</internalNodes>
          <leafValues>
            4.0110731124877930e-01 -2.7113324403762817e-01</leafValues></_>
        <_>
          <internalNodes>
            0 -1 34 -8.1934802234172821e-02</internalNodes>
          <leafValues>
            9.6007174253463745e-01 -8.3871729671955109e-02</leafValues></_></weakClassifiers></_>
    <!-- stage 26 -->
    <_>
      <maxWeakCount>16</maxWeakCount>
      <stageThreshold>-6.3486516475677490e-01</stageThreshold>
      <weakClassifiers>
        <_>
          <internalNodes>
            0 -1 175 -4.0155950933694839e-02</internalNodes>
          <leafValues>
            8.6705200374126434e-02 6.6929131746292114e-01</leafValues></_>
        <_>
          <internalNodes>
            0 -1 79 -4.3069412931799889e-03</internalNodes>
          <leafValues>
            -2.7935102581977844e-01 3.1216847896575928e-01</leafValues></_>
        <_>
          <internalNodes>
            0 -1 62 -1.9724199175834656e-01</internalNodes>
          <leafValues>
            2.9042443633079529e-01 -3.4665119647979736e-01</leafValues></_>
        <_>
          <internalNodes>
            0 -1 160 -1.4536696672439575e-01</internalNodes>
          <leafValues>
            2.5421172380447388e-01 -3.1038144230842590e-01</leafValues></_>
        <_>
          <internalNodes>
            0 -1 209 2.3425352573394775e-01</internalNodes>
          <leafValues>
            -2.1952101588249207e-01 6.6625565290451050e-01</leafValues></_>
        <_>
          <internalNodes>
            0 -1 275 2.5853853672742844e-02</internalNodes>
          <leafValues>
            -2.9586976766586304e-01 3.3718794584274292e-01</leafValues></_>
        <_>
          <internalNodes>
            0 -1 229 1.9657786935567856e-02</internalNodes>
          <leafValues>
            1.6074834764003754e-01 -7.3714208602905273e-01</leafValues></_>
        <_>
          <internalNodes>
            0 -1 121 -1.8553160130977631e-02</internalNodes>
          <leafValues>
            -3.6863154172897339e-01 2.6183271408081055e-01</leafValues></_>
        <_>
          <internalNodes>
            0 -1 24 1.2428388744592667e-01</internalNodes>
          <leafValues>
            1.0317941009998322e-01 -7.7783453464508057e-01</leafValues></_>
        <_>
          <internalNodes>
            0 -1 157 1.5661397948861122e-02</internalNodes>
          <leafValues>
            -1.6422681510448456e-01 5.5086106061935425e-01</leafValues></_>
        <_>
          <internalNodes>
            0 -1 97 -1.5191140770912170e-01</internalNodes>
          <leafValues>
            6.7984884977340698e-01 -1.0910581052303314e-01</leafValues></_>
        <_>
          <internalNodes>
            0 -1 281 1.1358104646205902e-02</internalNodes>
          <leafValues>
            -3.0849963426589966e-01 2.8372156620025635e-01</leafValues></_>
        <_>
          <internalNodes>
            0 -1 206 -7.1667760610580444e-02</internalNodes>
          <leafValues>
            9.0137368440628052e-01 -1.1159932613372803e-01</leafValues></_>
        <_>
          <internalNodes>
            0 -1 20 -1.0636998713016510e-01</internalNodes>
          <leafValues>
            1.2759155035018921e-01 -9.2612719535827637e-01</leafValues></_>
        <_>
          <internalNodes>
            0 -1 101 -4.2910867929458618e-01</internalNodes>
          <leafValues>
            -3.1734585762023926e-01 2.7269247174263000e-01</leafValues></_>
        <_>
          <internalNodes>
            0 -1 188 -1.1171735823154449e-02</internalNodes>
          <leafValues>
            3.5057765245437622e-01 -3.2449725270271301e-01</leafValues></_></weakClassifiers></_>
    <!-- stage 27 -->
    <_>
      <maxWeakCount>6</maxWeakCount>
      <stageThreshold>-1.8080976605415344e-01</stageThreshold>
      <weakClassifiers>
        <_>
          <internalNodes>
            0 -1 30 7.6491542160511017e-02</internalNodes>
          <leafValues>
            4.7058823704719543e-01 -1.</leafValues></_>
        <_>
          <internalNodes>
            0 -1 101 -6.3935458660125732e-01</internalNodes>
          <leafValues>
            -7.4863952398300171e-01 1.7382766306400299e-01</leafValues></_>
        <_>
          <internalNodes>
            0 -1 262 5.9366278350353241e-02</internalNodes>
          <leafValues>
            -3.2417383790016174e-01 3.7702035903930664e-01</leafValues></_>
        <_>
          <internalNodes>
            0 -1 265 -2.2088652476668358e-03</internalNodes>
          <leafValues>
            5.8423876762390137e-01 -2.1944773197174072e-01</leafValues></_>
        <_>
          <internalNodes>
            0 -1 99 -1.6619758307933807e-01</internalNodes>
          <leafValues>
            6.2912069261074066e-02 -1.</leafValues></_>
        <_>
          <internalNodes>
            0 -1 173 -4.9964938312768936e-02</internalNodes>
          <leafValues>
            5.2486819028854370e-01 -2.2573544085025787e-01</leafValues></_></weakClassifiers></_>
    <!-- stage 28 -->
    <_>
      <maxWeakCount>14</maxWeakCount>
      <stageThreshold>-8.0055147409439087e-01</stageThreshold>
      <weakClassifiers>
        <_>
          <internalNodes>
            0 -1 283 -8.6840931326150894e-03</internalNodes>
          <leafValues>
            -6.2162160873413086e-01 4.6768060326576233e-01</leafValues></_>
        <_>
          <internalNodes>
            0 -1 121 -3.0784945935010910e-02</internalNodes>
          <leafValues>
            -3.9483612775802612e-01 3.0509057641029358e-01</leafValues></_>
        <_>
          <internalNodes>
            0 -1 217 -2.0701555535197258e-02</internalNodes>
          <leafValues>
            -1.8584518134593964e-01 6.6962182521820068e-01</leafValues></_>
        <_>
          <internalNodes>
            0 -1 113 3.4346625208854675e-02</internalNodes>
          <leafValues>
            -1.9429631531238556e-01 7.0557504892349243e-01</leafValues></_>
        <_>
          <internalNodes>
            0 -1 288 -1.5098825097084045e-02</internalNodes>
          <leafValues>
            1.3546833395957947e-01 -9.3801164627075195e-01</leafValues></_>
        <_>
          <internalNodes>
            0 -1 88 9.9758215248584747e-02</internalNodes>
          <leafValues>
            -2.3381219804286957e-01 6.5279823541641235e-01</leafValues></_>
        <_>
          <internalNodes>
            0 -1 181 -3.0679471790790558e-02</internalNodes>
          <leafValues>
            -1.6763401031494141e-01 4.9406185746192932e-01</leafValues></_>
        <_>
          <internalNodes>
            0 -1 267 2.0583054050803185e-02</internalNodes>
          <leafValues>
            -1.7267699539661407e-01 6.4039677381515503e-01</leafValues></_>
        <_>
          <internalNodes>
            0 -1 274 -1.2000675313174725e-02</internalNodes>
          <leafValues>
            4.5596015453338623e-01 -2.3854823410511017e-01</leafValues></_>
        <_>
          <internalNodes>
            0 -1 29 5.4629510268568993e-03</internalNodes>
          <leafValues>
            -2.1246159076690674e-01 4.6677100658416748e-01</leafValues></_>
        <_>
          <internalNodes>
            0 -1 58 -1.9009146839380264e-02</internalNodes>
          <leafValues>
            6.3316363096237183e-01 -1.8056444823741913e-01</leafValues></_>
        <_>
          <internalNodes>
            0 -1 176 -3.0227210372686386e-02</internalNodes>
          <leafValues>
            5.2333915233612061e-01 -1.7870621383190155e-01</leafValues></_>
        <_>
          <internalNodes>
            0 -1 199 -2.4548377841711044e-02</internalNodes>
          <leafValues>
            9.0815705060958862e-01 -7.0860244333744049e-02</leafValues></_>
        <_>
          <internalNodes>
            0 -1 244 -1.9131486769765615e-03</internalNodes>
          <leafValues>
            3.9124959707260132e-01 -2.5885301828384399e-01</leafValues></_></weakClassifiers></_>
    <!-- stage 29 -->
    <_>
      <maxWeakCount>13</maxWeakCount>
      <stageThreshold>-5.6411343812942505e-01</stageThreshold>
      <weakClassifiers>
        <_>
          <internalNodes>
            0 -1 73 -2.3894082754850388e-02</internalNodes>
          <leafValues>
            5.2173912525177002e-01 -2.8571429848670959e-01</leafValues></_>
        <_>
          <internalNodes>
            0 -1 232 -5.6638401001691818e-03</internalNodes>
          <leafValues>
            3.6556333303451538e-01 -3.2820627093315125e-01</leafValues></_>
        <_>
          <internalNodes>
            0 -1 279 -5.5634956806898117e-03</internalNodes>
          <leafValues>
            9.1630679368972778e-01 -1.0341379046440125e-01</leafValues></_>
        <_>
          <internalNodes>
            0 -1 271 -6.1582297086715698e-02</internalNodes>
          <leafValues>
            6.1560529470443726e-01 -2.0721274614334106e-01</leafValues></_>
        <_>
          <internalNodes>
            0 -1 280 -1.2907173484563828e-02</internalNodes>
          <leafValues>
            4.9887084960937500e-01 -1.8767951428890228e-01</leafValues></_>
        <_>
          <internalNodes>
            0 -1 94 -4.9500900506973267e-01</internalNodes>
          <leafValues>
            4.8108315467834473e-01 -2.2787329554557800e-01</leafValues></_>
        <_>
          <internalNodes>
            0 -1 161 -1.1873911321163177e-01</internalNodes>
          <leafValues>
            -1.2846490740776062e-01 8.3968442678451538e-01</leafValues></_>
        <_>
          <internalNodes>
            0 -1 93 1.3237525708973408e-02</internalNodes>
          <leafValues>
            -6.2846072018146515e-02 9.2391806840896606e-01</leafValues></_>
        <_>
          <internalNodes>
            0 -1 249 1.7212627455592155e-02</internalNodes>
          <leafValues>
            1.4360567927360535e-01 -8.7310218811035156e-01</leafValues></_>
        <_>
          <internalNodes>
            0 -1 253 1.2789242900907993e-02</internalNodes>
          <leafValues>
            -1.5956281125545502e-01 6.5376508235931396e-01</leafValues></_>
        <_>
          <internalNodes>
            0 -1 216 6.7081092856824398e-04</internalNodes>
          <leafValues>
            1.5970407426357269e-01 -6.5736132860183716e-01</leafValues></_>
        <_>
          <internalNodes>
            0 -1 47 -1.5113472007215023e-02</internalNodes>
          <leafValues>
            -6.2025648355484009e-01 1.7084501683712006e-01</leafValues></_>
        <_>
          <internalNodes>
            0 -1 107 1.1595968902111053e-01</internalNodes>
          <leafValues>
            -1.4016886055469513e-01 8.7570029497146606e-01</leafValues></_></weakClassifiers></_>
    <!-- stage 30 -->
    <_>
      <maxWeakCount>20</maxWeakCount>
      <stageThreshold>-5.6013411283493042e-01</stageThreshold>
      <weakClassifiers>
        <_>
          <internalNodes>
            0 -1 75 1.5167254954576492e-02</internalNodes>
          <leafValues>
            3.8888889551162720e-01 -1.</leafValues></_>
        <_>
          <internalNodes>
            0 -1 169 -8.3740241825580597e-03</internalNodes>
          <leafValues>
            2.7161964774131775e-01 -3.7040194869041443e-01</leafValues></_>
        <_>
          <internalNodes>
            0 -1 249 -2.9746270738542080e-03</internalNodes>
          <leafValues>
            -3.6286604404449463e-01 2.8124403953552246e-01</leafValues></_>
        <_>
          <internalNodes>
            0 -1 212 1.9453159766271710e-03</internalNodes>
          <leafValues>
            1.7330665886402130e-01 -6.0447871685028076e-01</leafValues></_>
        <_>
          <internalNodes>
            0 -1 258 2.6909245178103447e-02</internalNodes>
          <leafValues>
            -2.9306960105895996e-01 3.7721848487854004e-01</leafValues></_>
        <_>
          <internalNodes>
            0 -1 162 -5.6140387058258057e-01</internalNodes>
          <leafValues>
            -7.7880233526229858e-01 1.3308648765087128e-01</leafValues></_>
        <_>
          <internalNodes>
            0 -1 180 -7.2572648525238037e-02</internalNodes>
          <leafValues>
            -1.2617412209510803e-01 7.6553577184677124e-01</leafValues></_>
        <_>
          <internalNodes>
            0 -1 195 2.2956538200378418e-01</internalNodes>
          <leafValues>
            -8.9475244283676147e-02 9.4595932960510254e-01</leafValues></_>
        <_>
          <internalNodes>
            0 -1 16 -1.2045877054333687e-02</internalNodes>
          <leafValues>
            -4.3021723628044128e-01 2.1736851334571838e-01</leafValues></_>
        <_>
          <internalNodes>
            0 -1 8 2.1396023035049438e-01</internalNodes>
          <leafValues>
            1.2817253172397614e-01 -7.0346814393997192e-01</leafValues></_>
        <_>
          <internalNodes>
            0 -1 123 1.2186136841773987e-01</internalNodes>
          <leafValues>
            -1.2702201306819916e-01 1.</leafValues></_>
        <_>
          <internalNodes>
            0 -1 215 -6.4437679946422577e-02</internalNodes>
          <leafValues>
            5.2083170413970947e-01 -1.3561552762985229e-01</leafValues></_>
        <_>
          <internalNodes>
            0 -1 107 4.1788853704929352e-02</internalNodes>
          <leafValues>
            -1.3876701891422272e-01 5.4780757427215576e-01</leafValues></_>
        <_>
          <internalNodes>
            0 -1 63 1.0702154040336609e-01</internalNodes>
          <leafValues>
            -2.8344300389289856e-01 3.8485646247863770e-01</leafValues></_>
        <_>
          <internalNodes>
            0 -1 164 3.3800813835114241e-03</internalNodes>
          <leafValues>
            -1.8843652307987213e-01 4.5760917663574219e-01</leafValues></_>
        <_>
          <internalNodes>
            0 -1 248 -6.6075734794139862e-03</internalNodes>
          <leafValues>
            -6.5484583377838135e-01 1.6644485294818878e-01</leafValues></_>
        <_>
          <internalNodes>
            0 -1 184 -9.9784702062606812e-02</internalNodes>
          <leafValues>
            -3.5544127225875854e-01 3.1221398711204529e-01</leafValues></_>
        <_>
          <internalNodes>
            0 -1 130 -8.1052082777023315e-01</internalNodes>
          <leafValues>
            2.8218924999237061e-01 -3.6855071783065796e-01</leafValues></_>
        <_>
          <internalNodes>
            0 -1 134 -3.0097267031669617e-01</internalNodes>
          <leafValues>
            -1.1003137379884720e-01 8.3262014389038086e-01</leafValues></_>
        <_>
          <internalNodes>
            0 -1 222 2.6384484954178333e-03</internalNodes>
          <leafValues>
            2.2562851011753082e-01 -4.4754078984260559e-01</leafValues></_></weakClassifiers></_>
    <!-- stage 31 -->
    <_>
      <maxWeakCount>13</maxWeakCount>
      <stageThreshold>-6.1935651302337646e-01</stageThreshold>
      <weakClassifiers>
        <_>
          <internalNodes>
            0 -1 226 1.4357078820466995e-02</internalNodes>
          <leafValues>
            1.1917098611593246e-01 7.1962618827819824e-01</leafValues></_>
        <_>
          <internalNodes>
            0 -1 114 -3.4472554922103882e-02</internalNodes>
          <leafValues>
            8.7683647871017456e-01 -7.7953867614269257e-02</leafValues></_>
        <_>
          <internalNodes>
            0 -1 92 -2.1645818650722504e-01</internalNodes>
          <leafValues>
            -2.9901298880577087e-01 3.4208008646965027e-01</leafValues></_>
        <_>
          <internalNodes>
            0 -1 185 3.6241479218006134e-02</internalNodes>
          <leafValues>
            -1.8534439802169800e-01 4.9120506644248962e-01</leafValues></_>
        <_>
          <internalNodes>
            0 -1 150 -9.8602334037423134e-04</internalNodes>
          <leafValues>
            1.6233934462070465e-01 -5.8009833097457886e-01</leafValues></_>
        <_>
          <internalNodes>
            0 -1 40 -2.5566911697387695e-01</internalNodes>
          <leafValues>
            6.2394726276397705e-01 -1.7857430875301361e-01</leafValues></_>
        <_>
          <internalNodes>
            0 -1 194 -6.4238101243972778e-02</internalNodes>
          <leafValues>
            4.4211372733116150e-01 -2.9274630546569824e-01</leafValues></_>
        <_>
          <internalNodes>
            0 -1 76 -1.3320089783519506e-03</internalNodes>
          <leafValues>
            -3.9892894029617310e-01 2.8703016042709351e-01</leafValues></_>
        <_>
          <internalNodes>
            0 -1 76 1.0557450354099274e-02</internalNodes>
          <leafValues>
            1.2993632256984711e-01 -8.3664882183074951e-01</leafValues></_>
        <_>
          <internalNodes>
            0 -1 261 4.3906487524509430e-02</internalNodes>
          <leafValues>
            -1.9326607882976532e-01 6.0507947206497192e-01</leafValues></_>
        <_>
          <internalNodes>
            0 -1 254 6.4158474560827017e-04</internalNodes>
          <leafValues>
            -3.5300633311271667e-01 3.7076577544212341e-01</leafValues></_>
        <_>
          <internalNodes>
            0 -1 238 -2.7984143234789371e-03</internalNodes>
          <leafValues>
            3.8713416457176208e-01 -2.8564769029617310e-01</leafValues></_>
        <_>
          <internalNodes>
            0 -1 66 -2.7278348803520203e-02</internalNodes>
          <leafValues>
            1.0666196048259735e-01 -9.7206562757492065e-01</leafValues></_></weakClassifiers></_>
    <!-- stage 32 -->
    <_>
      <maxWeakCount>12</maxWeakCount>
      <stageThreshold>-2.9079669713973999e-01</stageThreshold>
      <weakClassifiers>
        <_>
          <internalNodes>
            0 -1 127 -1.5638518333435059e-01</internalNodes>
          <leafValues>
            -4.9504950642585754e-02 5.2763819694519043e-01</leafValues></_>
        <_>
          <internalNodes>
            0 -1 187 -3.3864669501781464e-02</internalNodes>
          <leafValues>
            2.1241858601570129e-01 -5.8368241786956787e-01</leafValues></_>
        <_>
          <internalNodes>
            0 -1 213 -2.3529982194304466e-02</internalNodes>
          <leafValues>
            -1.4717110991477966e-01 5.7830178737640381e-01</leafValues></_>
        <_>
          <internalNodes>
            0 -1 114 -1.8028266727924347e-02</internalNodes>
          <leafValues>
            5.2582454681396484e-01 -1.7373317480087280e-01</leafValues></_>
        <_>
          <internalNodes>
            0 -1 84 5.4845190607011318e-03</internalNodes>
          <leafValues>
            -1.1621113866567612e-01 5.0111424922943115e-01</leafValues></_>
        <_>
          <internalNodes>
            0 -1 123 1.2563410401344299e-01</internalNodes>
          <leafValues>
            -1.1671303957700729e-01 9.2244952917098999e-01</leafValues></_>
        <_>
          <internalNodes>
            0 -1 186 -2.6390245184302330e-03</internalNodes>
          <leafValues>
            -4.4354391098022461e-01 2.3283846676349640e-01</leafValues></_>
        <_>
          <internalNodes>
            0 -1 168 -1.9255083799362183e-01</internalNodes>
          <leafValues>
            3.2200175523757935e-01 -2.8345784544944763e-01</leafValues></_>
        <_>
          <internalNodes>
            0 -1 53 -2.8718516230583191e-01</internalNodes>
          <leafValues>
            5.7961887121200562e-01 -1.7943879961967468e-01</leafValues></_>
        <_>
          <internalNodes>
            0 -1 5 -1.0650610551238060e-02</internalNodes>
          <leafValues>
            -4.4264718890190125e-01 2.4804724752902985e-01</leafValues></_>
        <_>
          <internalNodes>
            0 -1 203 -1.5674268361181021e-03</internalNodes>
          <leafValues>
            2.0737595856189728e-01 -4.5911240577697754e-01</leafValues></_>
        <_>
          <internalNodes>
            0 -1 192 -4.9436193704605103e-01</internalNodes>
          <leafValues>
            -7.7075326442718506e-01 1.3337743282318115e-01</leafValues></_></weakClassifiers></_>
    <!-- stage 33 -->
    <_>
      <maxWeakCount>12</maxWeakCount>
      <stageThreshold>-3.3662158250808716e-01</stageThreshold>
      <weakClassifiers>
        <_>
          <internalNodes>
            0 -1 246 1.7799625173211098e-02</internalNodes>
          <leafValues>
            1.0204081982374191e-01 7.6923078298568726e-01</leafValues></_>
        <_>
          <internalNodes>
            0 -1 289 1.0631386190652847e-02</internalNodes>
          <leafValues>
            -1.1235408484935760e-01 6.6710406541824341e-01</leafValues></_>
        <_>
          <internalNodes>
            0 -1 9 -3.4753859043121338e-02</internalNodes>
          <leafValues>
            2.6188859343528748e-01 -4.2916458845138550e-01</leafValues></_>
        <_>
          <internalNodes>
            0 -1 212 -2.8986793477088213e-03</internalNodes>
          <leafValues>
            -3.3950704336166382e-01 3.5354971885681152e-01</leafValues></_>
        <_>
          <internalNodes>
            0 -1 133 4.2787976562976837e-02</internalNodes>
          <leafValues>
            -1.4044894278049469e-01 9.2176795005798340e-01</leafValues></_>
        <_>
          <internalNodes>
            0 -1 75 -4.4088885188102722e-02</internalNodes>
          <leafValues>
            -9.1485494375228882e-01 1.4954921603202820e-01</leafValues></_>
        <_>
          <internalNodes>
            0 -1 251 8.5737414658069611e-02</internalNodes>
          <leafValues>
            -1.6522037982940674e-01 6.0906732082366943e-01</leafValues></_>
        <_>
          <internalNodes>
            0 -1 56 -1.9678153097629547e-02</internalNodes>
          <leafValues>
            1.7308485507965088e-01 -6.9056993722915649e-01</leafValues></_>
        <_>
          <internalNodes>
            0 -1 7 1.9953783601522446e-02</internalNodes>
          <leafValues>
            -1.8335084617137909e-01 6.3065022230148315e-01</leafValues></_>
        <_>
          <internalNodes>
            0 -1 167 -1.0128736495971680e-01</internalNodes>
          <leafValues>
            7.8470462560653687e-01 -1.4004637300968170e-01</leafValues></_>
        <_>
          <internalNodes>
            0 -1 54 2.4631697684526443e-02</internalNodes>
          <leafValues>
            -1.8012619018554688e-01 5.3812688589096069e-01</leafValues></_>
        <_>
          <internalNodes>
            0 -1 86 -3.1469576060771942e-02</internalNodes>
          <leafValues>
            4.0846684575080872e-01 -2.3868010938167572e-01</leafValues></_></weakClassifiers></_>
    <!-- stage 34 -->
    <_>
      <maxWeakCount>14</maxWeakCount>
      <stageThreshold>-5.7493543624877930e-01</stageThreshold>
      <weakClassifiers>
        <_>
          <internalNodes>
            0 -1 277 2.0026443526148796e-02</internalNodes>
          <leafValues>
            -7.6923079788684845e-02 5.5102038383483887e-01</leafValues></_>
        <_>
          <internalNodes>
            0 -1 220 -1.2288769707083702e-02</internalNodes>
          <leafValues>
            4.9022379517555237e-01 -1.7777435481548309e-01</leafValues></_>
        <_>
          <internalNodes>
            0 -1 142 -1.2729175388813019e-01</internalNodes>
          <leafValues>
            7.3948061466217041e-01 -1.2717258930206299e-01</leafValues></_>
        <_>
          <internalNodes>
            0 -1 135 -2.8763484954833984e-01</internalNodes>
          <leafValues>
            -3.5910159349441528e-01 3.1287825107574463e-01</leafValues></_>
        <_>
          <internalNodes>
            0 -1 236 -1.8399766087532043e-01</internalNodes>
          <leafValues>
            8.7072759866714478e-01 -1.0889263451099396e-01</leafValues></_>
        <_>
          <internalNodes>
            0 -1 32 -7.3261032812297344e-03</internalNodes>
          <leafValues>
            3.3584341406822205e-01 -2.9816102981567383e-01</leafValues></_>
        <_>
          <internalNodes>
            0 -1 0 -4.3777693063020706e-03</internalNodes>
          <leafValues>
            -4.8027184605598450e-01 2.1494999527931213e-01</leafValues></_>
        <_>
          <internalNodes>
            0 -1 272 -7.2982395067811012e-03</internalNodes>
          <leafValues>
            1. -1.4042502641677856e-01</leafValues></_>
        <_>
          <internalNodes>
            0 -1 286 -3.6133635789155960e-02</internalNodes>
          <leafValues>
            -3.0192798376083374e-01 3.4836167097091675e-01</leafValues></_>
        <_>
          <internalNodes>
            0 -1 116 -1.3440908864140511e-02</internalNodes>
          <leafValues>
            5.5569118261337280e-01 -2.1576309204101563e-01</leafValues></_>
        <_>
          <internalNodes>
            0 -1 12 1.3964360952377319e-01</internalNodes>
          <leafValues>
            1.2475244700908661e-01 -1.</leafValues></_>
        <_>
          <internalNodes>
            0 -1 159 -7.5158968567848206e-02</internalNodes>
          <leafValues>
            5.4215133190155029e-01 -2.2024814784526825e-01</leafValues></_>
        <_>
          <internalNodes>
            0 -1 195 1.8971690535545349e-01</internalNodes>
          <leafValues>
            -1.2306981533765793e-01 9.2341053485870361e-01</leafValues></_>
        <_>
          <internalNodes>
            0 -1 35 -4.2300745844841003e-02</internalNodes>
          <leafValues>
            -1.3227955996990204e-01 7.0844078063964844e-01</leafValues></_></weakClassifiers></_>
    <!-- stage 35 -->
    <_>
      <maxWeakCount>14</maxWeakCount>
      <stageThreshold>-4.3517667055130005e-01</stageThreshold>
      <weakClassifiers>
        <_>
          <internalNodes>
            0 -1 135 -2.9429566860198975e-01</internalNodes>
          <leafValues>
            -5.0847455859184265e-02 5.8241760730743408e-01</leafValues></_>
        <_>
          <internalNodes>
            0 -1 33 1.4741931855678558e-01</internalNodes>
          <leafValues>
            1.3575673103332520e-01 -8.6440682411193848e-01</leafValues></_>
        <_>
          <internalNodes>
            0 -1 179 1.9660837948322296e-02</internalNodes>
          <leafValues>
            1.1889918893575668e-01 -7.9858314990997314e-01</leafValues></_>
        <_>
          <internalNodes>
            0 -1 222 -2.1937513723969460e-02</internalNodes>
          <leafValues>
            -7.5807875394821167e-01 6.0170833021402359e-02</leafValues></_>
        <_>
          <internalNodes>
            0 -1 223 -9.5654530450701714e-03</internalNodes>
          <leafValues>
            2.0044703781604767e-01 -4.1217899322509766e-01</leafValues></_>
        <_>
          <internalNodes>
            0 -1 18 5.3613103926181793e-02</internalNodes>
          <leafValues>
            -1.4745196700096130e-01 6.0691624879837036e-01</leafValues></_>
        <_>
          <internalNodes>
            0 -1 50 -7.0986658334732056e-02</internalNodes>
          <leafValues>
            5.2832335233688354e-01 -1.9473466277122498e-01</leafValues></_>
        <_>
          <internalNodes>
            0 -1 8 2.3815175890922546e-01</internalNodes>
          <leafValues>
            1.0643299669027328e-01 -8.0623638629913330e-01</leafValues></_>
        <_>
          <internalNodes>
            0 -1 290 -1.9861821085214615e-02</internalNodes>
          <leafValues>
            1.1082410812377930e-01 -7.6052165031433105e-01</leafValues></_>
        <_>
          <internalNodes>
            0 -1 124 2.4672858417034149e-03</internalNodes>
          <leafValues>
            -3.0500826239585876e-01 3.2609331607818604e-01</leafValues></_>
        <_>
          <internalNodes>
            0 -1 5 1.6751920804381371e-02</internalNodes>
          <leafValues>
            1.9082814455032349e-01 -6.2427723407745361e-01</leafValues></_>
        <_>
          <internalNodes>
            0 -1 149 1.6945209354162216e-02</internalNodes>
          <leafValues>
            -1.6989086568355560e-01 5.3514432907104492e-01</leafValues></_>
        <_>
          <internalNodes>
            0 -1 106 -1.2490355968475342e-01</internalNodes>
          <leafValues>
            1.6680172085762024e-01 -6.5964221954345703e-01</leafValues></_>
        <_>
          <internalNodes>
            0 -1 72 -4.2468514293432236e-03</internalNodes>
          <leafValues>
            3.9943432807922363e-01 -2.3217549920082092e-01</leafValues></_></weakClassifiers></_>
    <!-- stage 36 -->
    <_>
      <maxWeakCount>12</maxWeakCount>
      <stageThreshold>-8.1857174634933472e-01</stageThreshold>
      <weakClassifiers>
        <_>
          <internalNodes>
            0 -1 83 -8.8051462173461914e-01</internalNodes>
          <leafValues>
            -6.0000002384185791e-01 4.7692307829856873e-01</leafValues></_>
        <_>
          <internalNodes>
            0 -1 189 1.1703222244977951e-01</internalNodes>
          <leafValues>
            -1.8694385886192322e-01 7.9067629575729370e-01</leafValues></_>
        <_>
          <internalNodes>
            0 -1 234 -2.5327382609248161e-02</internalNodes>
          <leafValues>
            6.0337519645690918e-01 -2.0129910111427307e-01</leafValues></_>
        <_>
          <internalNodes>
            0 -1 185 -4.9281744286417961e-03</internalNodes>
          <leafValues>
            6.7711102962493896e-01 -1.8383823335170746e-01</leafValues></_>
        <_>
          <internalNodes>
            0 -1 29 -3.7298521492630243e-03</internalNodes>
          <leafValues>
            6.0119336843490601e-01 -2.7673855423927307e-01</leafValues></_>
        <_>
          <internalNodes>
            0 -1 212 1.0164759587496519e-03</internalNodes>
          <leafValues>
            2.9158806800842285e-01 -5.6550806760787964e-01</leafValues></_>
        <_>
          <internalNodes>
            0 -1 289 1.0335730388760567e-02</internalNodes>
          <leafValues>
            -2.7051123976707458e-01 5.8653253316879272e-01</leafValues></_>
        <_>
          <internalNodes>
            0 -1 172 -1.1943737044930458e-02</internalNodes>
          <leafValues>
            -1.5070968866348267e-01 7.5012040138244629e-01</leafValues></_>
        <_>
          <internalNodes>
            0 -1 38 -2.8078860044479370e-01</internalNodes>
          <leafValues>
            -1.2637211382389069e-01 8.3025729656219482e-01</leafValues></_>
        <_>
          <internalNodes>
            0 -1 247 -4.8258658498525620e-03</internalNodes>
          <leafValues>
            5.5592483282089233e-01 -2.0274345576763153e-01</leafValues></_>
        <_>
          <internalNodes>
            0 -1 245 -1.3240699190646410e-03</internalNodes>
          <leafValues>
            6.6298741102218628e-01 -1.4076112210750580e-01</leafValues></_>
        <_>
          <internalNodes>
            0 -1 281 -1.7459781374782324e-03</internalNodes>
          <leafValues>
            -7.1301865577697754e-01 1.5283446013927460e-01</leafValues></_></weakClassifiers></_>
    <!-- stage 37 -->
    <_>
      <maxWeakCount>14</maxWeakCount>
      <stageThreshold>-3.2502558827400208e-01</stageThreshold>
      <weakClassifiers>
        <_>
          <internalNodes>
            0 -1 224 -4.6944387257099152e-02</internalNodes>
          <leafValues>
            6.1142855882644653e-01 -5.6000001728534698e-02</leafValues></_>
        <_>
          <internalNodes>
            0 -1 237 -2.1963642910122871e-02</internalNodes>
          <leafValues>
            -1.5563075244426727e-01 5.9368270635604858e-01</leafValues></_>
        <_>
          <internalNodes>
            0 -1 202 -1.3711938261985779e-01</internalNodes>
          <leafValues>
            7.4595397710800171e-01 -1.0942381620407104e-01</leafValues></_>
        <_>
          <internalNodes>
            0 -1 219 7.0851733908057213e-03</internalNodes>
          <leafValues>
            -2.6017129421234131e-01 4.5134329795837402e-01</leafValues></_>
        <_>
          <internalNodes>
            0 -1 144 -2.5866851210594177e-02</internalNodes>
          <leafValues>
            -4.2805066704750061e-01 2.7994266152381897e-01</leafValues></_>
        <_>
          <internalNodes>
            0 -1 143 9.7621660679578781e-03</internalNodes>
          <leafValues>
            1.6230732202529907e-01 -7.0777696371078491e-01</leafValues></_>
        <_>
          <internalNodes>
            0 -1 96 1.7193522304296494e-02</internalNodes>
          <leafValues>
            -1.4208945631980896e-01 7.4342995882034302e-01</leafValues></_>
        <_>
          <internalNodes>
            0 -1 50 -6.5472647547721863e-02</internalNodes>
          <leafValues>
            5.5201518535614014e-01 -1.8354876339435577e-01</leafValues></_>
        <_>
          <internalNodes>
            0 -1 155 -2.4754953384399414e-01</internalNodes>
          <leafValues>
            -5.3083401918411255e-01 2.0581813156604767e-01</leafValues></_>
        <_>
          <internalNodes>
            0 -1 232 -3.5750024020671844e-02</internalNodes>
          <leafValues>
            6.0677206516265869e-01 -1.5075008571147919e-01</leafValues></_>
        <_>
          <internalNodes>
            0 -1 147 4.7862429171800613e-02</internalNodes>
          <leafValues>
            1.1902629584074020e-01 -9.7042781114578247e-01</leafValues></_>
        <_>
          <internalNodes>
            0 -1 214 -2.1131504327058792e-03</internalNodes>
          <leafValues>
            1.9233046472072601e-01 -4.8271152377128601e-01</leafValues></_>
        <_>
          <internalNodes>
            0 -1 217 -2.6309248059988022e-02</internalNodes>
          <leafValues>
            -2.3460124433040619e-01 4.1254910826683044e-01</leafValues></_>
        <_>
          <internalNodes>
            0 -1 155 -1.1982548236846924e-01</internalNodes>
          <leafValues>
            1.5307812392711639e-01 -6.8586564064025879e-01</leafValues></_></weakClassifiers></_>
    <!-- stage 38 -->
    <_>
      <maxWeakCount>11</maxWeakCount>
      <stageThreshold>-4.4580295681953430e-01</stageThreshold>
      <weakClassifiers>
        <_>
          <internalNodes>
            0 -1 197 -1.2513604015111923e-02</internalNodes>
          <leafValues>
            6.8553459644317627e-01 -6.3829787075519562e-02</leafValues></_>
        <_>
          <internalNodes>
            0 -1 41 3.6494366824626923e-02</internalNodes>
          <leafValues>
            -1.1154902726411819e-01 8.4592717885971069e-01</leafValues></_>
        <_>
          <internalNodes>
            0 -1 132 -2.0568403601646423e-01</internalNodes>
          <leafValues>
            -2.7422443032264709e-01 5.4671388864517212e-01</leafValues></_>
        <_>
          <internalNodes>
            0 -1 31 -1.7310667037963867e-01</internalNodes>
          <leafValues>
            7.2293543815612793e-01 -2.1477924287319183e-01</leafValues></_>
        <_>
          <internalNodes>
            0 -1 19 2.1344404667615891e-02</internalNodes>
          <leafValues>
            -2.3843719065189362e-01 6.0897463560104370e-01</leafValues></_>
        <_>
          <internalNodes>
            0 -1 248 5.6028151884675026e-03</internalNodes>
          <leafValues>
            3.0139464139938354e-01 -6.6225421428680420e-01</leafValues></_>
        <_>
          <internalNodes>
            0 -1 148 -1.0141833126544952e-01</internalNodes>
          <leafValues>
            -4.6795231103897095e-01 3.1939727067947388e-01</leafValues></_>
        <_>
          <internalNodes>
            0 -1 183 -7.9051852226257324e-03</internalNodes>
          <leafValues>
            7.0749855041503906e-01 -1.9017121195793152e-01</leafValues></_>
        <_>
          <internalNodes>
            0 -1 46 -4.9620205163955688e-01</internalNodes>
          <leafValues>
            -3.5307022929191589e-01 4.2314678430557251e-01</leafValues></_>
        <_>
          <internalNodes>
            0 -1 87 -4.4187664985656738e-01</internalNodes>
          <leafValues>
            4.5630285143852234e-01 -3.9870434999465942e-01</leafValues></_>
        <_>
          <internalNodes>
            0 -1 28 -1.0858385823667049e-02</internalNodes>
          <leafValues>
            -6.0470026731491089e-01 2.7025449275970459e-01</leafValues></_></weakClassifiers></_>
    <!-- stage 39 -->
    <_>
      <maxWeakCount>8</maxWeakCount>
      <stageThreshold>-9.8774421215057373e-01</stageThreshold>
      <weakClassifiers>
        <_>
          <internalNodes>
            0 -1 146 -1.5025317668914795e-02</internalNodes>
          <leafValues>
            -3.1914892792701721e-01 6.3106793165206909e-01</leafValues></_>
        <_>
          <internalNodes>
            0 -1 19 2.1344404667615891e-02</internalNodes>
          <leafValues>
            -2.2485445439815521e-01 9.3106138706207275e-01</leafValues></_>
        <_>
          <internalNodes>
            0 -1 1 2.6757833547890186e-03</internalNodes>
          <leafValues>
            -2.3730254173278809e-01 8.3523839712142944e-01</leafValues></_>
        <_>
          <internalNodes>
            0 -1 228 -4.4834692962467670e-03</internalNodes>
          <leafValues>
            8.7453877925872803e-01 -2.8451153635978699e-01</leafValues></_>
        <_>
          <internalNodes>
            0 -1 156 -2.4116318672895432e-02</internalNodes>
          <leafValues>
            -2.4730017781257629e-01 8.9253890514373779e-01</leafValues></_>
        <_>
          <internalNodes>
            0 -1 257 3.9573447429575026e-04</internalNodes>
          <leafValues>
            -3.8689857721328735e-01 5.8725374937057495e-01</leafValues></_>
        <_>
          <internalNodes>
            0 -1 131 -1.5559068322181702e-01</internalNodes>
          <leafValues>
            -2.0351663231849670e-01 1.</leafValues></_>
        <_>
          <internalNodes>
            0 -1 240 -2.6534017175436020e-02</internalNodes>
          <leafValues>
            1. -1.5675231814384460e-01</leafValues></_></weakClassifiers></_></stages>
  <features>
    <_>
      <rects>
        <_>
          0 0 2 1 -1.</_>
        <_>
          1 0 1 1 2.</_></rects>
      <tilted>0</tilted></_>
    <_>
      <rects>
        <_>
          0 0 1 4 -1.</_>
        <_>
          0 2 1 2 2.</_></rects>
      <tilted>0</tilted></_>
    <_>
      <rects>
        <_>
          0 0 1 6 -1.</_>
        <_>
          0 3 1 3 2.</_></rects>
      <tilted>0</tilted></_>
    <_>
      <rects>
        <_>
          0 0 1 8 -1.</_>
        <_>
          0 4 1 4 2.</_></rects>
      <tilted>0</tilted></_>
    <_>
      <rects>
        <_>
          0 0 2 5 -1.</_>
        <_>
          1 0 1 5 2.</_></rects>
      <tilted>0</tilted></_>
    <_>
      <rects>
        <_>
          0 0 4 1 -1.</_>
        <_>
          2 0 2 1 2.</_></rects>
      <tilted>0</tilted></_>
    <_>
      <rects>
        <_>
          0 0 6 1 -1.</_>
        <_>
          2 0 2 1 2.</_></rects>
      <tilted>0</tilted></_>
    <_>
      <rects>
        <_>
          0 0 4 2 -1.</_>
        <_>
          0 0 2 1 2.</_>
        <_>
          2 1 2 1 2.</_></rects>
      <tilted>0</tilted></_>
    <_>
      <rects>
        <_>
          0 0 2 8 -1.</_>
        <_>
          0 4 2 4 2.</_></rects>
      <tilted>0</tilted></_>
    <_>
      <rects>
        <_>
          0 0 4 8 -1.</_>
        <_>
          0 0 2 4 2.</_>
        <_>
          2 4 2 4 2.</_></rects>
      <tilted>0</tilted></_>
    <_>
      <rects>
        <_>
          0 0 3 2 -1.</_>
        <_>
          0 1 3 1 2.</_></rects>
      <tilted>0</tilted></_>
    <_>
      <rects>
        <_>
          0 0 8 1 -1.</_>
        <_>
          4 0 4 1 2.</_></rects>
      <tilted>0</tilted></_>
    <_>
      <rects>
        <_>
          0 0 6 2 -1.</_>
        <_>
          0 1 6 1 2.</_></rects>
      <tilted>0</tilted></_>
    <_>
      <rects>
        <_>
          0 0 6 4 -1.</_>
        <_>
          0 2 6 2 2.</_></rects>
      <tilted>0</tilted></_>
    <_>
      <rects>
        <_>
          0 0 8 6 -1.</_>
        <_>
          0 2 8 2 2.</_></rects>
      <tilted>0</tilted></_>
    <_>
      <rects>
        <_>
          0 1 2 1 -1.</_>
        <_>
          1 1 1 1 2.</_></rects>
      <tilted>0</tilted></_>
    <_>
      <rects>
        <_>
          0 1 1 4 -1.</_>
        <_>
          0 3 1 2 2.</_></rects>
      <tilted>0</tilted></_>
    <_>
      <rects>
        <_>
          0 1 1 6 -1.</_>
        <_>
          0 4 1 3 2.</_></rects>
      <tilted>0</tilted></_>
    <_>
      <rects>
        <_>
          0 1 2 5 -1.</_>
        <_>
          1 1 1 5 2.</_></rects>
      <tilted>0</tilted></_>
    <_>
      <rects>
        <_>
          0 1 4 2 -1.</_>
        <_>
          0 1 2 1 2.</_>
        <_>
          2 2 2 1 2.</_></rects>
      <tilted>0</tilted></_>
    <_>
      <rects>
        <_>
          0 1 2 6 -1.</_>
        <_>
          0 3 2 2 2.</_></rects>
      <tilted>0</tilted></_>
    <_>
      <rects>
        <_>
          0 1 4 7 -1.</_>
        <_>
          2 1 2 7 2.</_></rects>
      <tilted>0</tilted></_>
    <_>
      <rects>
        <_>
          0 1 6 3 -1.</_>
        <_>
          3 1 3 3 2.</_></rects>
      <tilted>0</tilted></_>
    <_>
      <rects>
        <_>
          0 1 6 6 -1.</_>
        <_>
          3 1 3 6 2.</_></rects>
      <tilted>0</tilted></_>
    <_>
      <rects>
        <_>
          0 1 4 2 -1.</_>
        <_>
          0 2 4 1 2.</_></rects>
      <tilted>0</tilted></_>
    <_>
      <rects>
        <_>
          0 1 8 2 -1.</_>
        <_>
          0 1 4 1 2.</_>
        <_>
          4 2 4 1 2.</_></rects>
      <tilted>0</tilted></_>
    <_>
      <rects>
        <_>
          0 1 8 5 -1.</_>
        <_>
          4 1 4 5 2.</_></rects>
      <tilted>0</tilted></_>
    <_>
      <rects>
        <_>
          0 1 7 6 -1.</_>
        <_>
          0 4 7 3 2.</_></rects>
      <tilted>0</tilted></_>
    <_>
      <rects>
        <_>
          0 2 1 2 -1.</_>
        <_>
          0 3 1 1 2.</_></rects>
      <tilted>0</tilted></_>
    <_>
      <rects>
        <_>
          0 2 2 2 -1.</_>
        <_>
          0 2 1 1 2.</_>
        <_>
          1 3 1 1 2.</_></rects>
      <tilted>0</tilted></_>
    <_>
      <rects>
        <_>
          0 2 1 4 -1.</_>
        <_>
          0 4 1 2 2.</_></rects>
      <tilted>0</tilted></_>
    <_>
      <rects>
        <_>
          0 2 1 6 -1.</_>
        <_>
          0 4 1 2 2.</_></rects>
      <tilted>0</tilted></_>
    <_>
      <rects>
        <_>
          0 2 2 4 -1.</_>
        <_>
          0 2 1 2 2.</_>
        <_>
          1 4 1 2 2.</_></rects>
      <tilted>0</tilted></_>
    <_>
      <rects>
        <_>
          0 2 1 6 -1.</_>
        <_>
          0 5 1 3 2.</_></rects>
      <tilted>0</tilted></_>
    <_>
      <rects>
        <_>
          0 2 4 1 -1.</_>
        <_>
          2 2 2 1 2.</_></rects>
      <tilted>0</tilted></_>
    <_>
      <rects>
        <_>
          0 2 6 1 -1.</_>
        <_>
          2 2 2 1 2.</_></rects>
      <tilted>0</tilted></_>
    <_>
      <rects>
        <_>
          0 2 4 4 -1.</_>
        <_>
          0 2 2 2 2.</_>
        <_>
          2 4 2 2 2.</_></rects>
      <tilted>0</tilted></_>
    <_>
      <rects>
        <_>
          0 2 4 6 -1.</_>
        <_>
          0 2 2 3 2.</_>
        <_>
          2 5 2 3 2.</_></rects>
      <tilted>0</tilted></_>
    <_>
      <rects>
        <_>
          0 2 6 5 -1.</_>
        <_>
          2 2 2 5 2.</_></rects>
      <tilted>0</tilted></_>
    <_>
      <rects>
        <_>
          0 2 3 2 -1.</_>
        <_>
          0 3 3 1 2.</_></rects>
      <tilted>0</tilted></_>
    <_>
      <rects>
        <_>
          0 2 6 2 -1.</_>
        <_>
          3 2 3 2 2.</_></rects>
      <tilted>0</tilted></_>
    <_>
      <rects>
        <_>
          0 2 4 2 -1.</_>
        <_>
          0 3 4 1 2.</_></rects>
      <tilted>0</tilted></_>
    <_>
      <rects>
        <_>
          0 2 4 3 -1.</_>
        <_>
          0 3 4 1 2.</_></rects>
      <tilted>0</tilted></_>
    <_>
      <rects>
        <_>
          0 2 4 6 -1.</_>
        <_>
          0 5 4 3 2.</_></rects>
      <tilted>0</tilted></_>
    <_>
      <rects>
        <_>
          0 2 5 3 -1.</_>
        <_>
          0 3 5 1 2.</_></rects>
      <tilted>0</tilted></_>
    <_>
      <rects>
        <_>
          0 2 6 3 -1.</_>
        <_>
          0 3 6 1 2.</_></rects>
      <tilted>0</tilted></_>
    <_>
      <rects>
        <_>
          0 2 8 3 -1.</_>
        <_>
          0 3 8 1 2.</_></rects>
      <tilted>0</tilted></_>
    <_>
      <rects>
        <_>
          0 3 1 2 -1.</_>
        <_>
          0 4 1 1 2.</_></rects>
      <tilted>0</tilted></_>
    <_>
      <rects>
        <_>
          0 3 2 2 -1.</_>
        <_>
          1 3 1 2 2.</_></rects>
      <tilted>0</tilted></_>
    <_>
      <rects>
        <_>
          0 3 1 4 -1.</_>
        <_>
          0 5 1 2 2.</_></rects>
      <tilted>0</tilted></_>
    <_>
      <rects>
        <_>
          0 3 2 4 -1.</_>
        <_>
          1 3 1 4 2.</_></rects>
      <tilted>0</tilted></_>
    <_>
      <rects>
        <_>
          0 3 4 2 -1.</_>
        <_>
          2 3 2 2 2.</_></rects>
      <tilted>0</tilted></_>
    <_>
      <rects>
        <_>
          0 3 4 4 -1.</_>
        <_>
          2 3 2 4 2.</_></rects>
      <tilted>0</tilted></_>
    <_>
      <rects>
        <_>
          0 3 4 5 -1.</_>
        <_>
          2 3 2 5 2.</_></rects>
      <tilted>0</tilted></_>
    <_>
      <rects>
        <_>
          0 3 6 2 -1.</_>
        <_>
          0 3 3 1 2.</_>
        <_>
          3 4 3 1 2.</_></rects>
      <tilted>0</tilted></_>
    <_>
      <rects>
        <_>
          0 3 4 2 -1.</_>
        <_>
          0 4 4 1 2.</_></rects>
      <tilted>0</tilted></_>
    <_>
      <rects>
        <_>
          0 3 8 4 -1.</_>
        <_>
          4 3 4 4 2.</_></rects>
      <tilted>0</tilted></_>
    <_>
      <rects>
        <_>
          0 3 5 3 -1.</_>
        <_>
          0 4 5 1 2.</_></rects>
      <tilted>0</tilted></_>
    <_>
      <rects>
        <_>
          0 4 2 1 -1.</_>
        <_>
          1 4 1 1 2.</_></rects>
      <tilted>0</tilted></_>
    <_>
      <rects>
        <_>
          0 4 2 4 -1.</_>
        <_>
          0 4 1 2 2.</_>
        <_>
          1 6 1 2 2.</_></rects>
      <tilted>0</tilted></_>
    <_>
      <rects>
        <_>
          0 4 2 3 -1.</_>
        <_>
          1 4 1 3 2.</_></rects>
      <tilted>0</tilted></_>
    <_>
      <rects>
        <_>
          0 4 4 4 -1.</_>
        <_>
          0 4 2 2 2.</_>
        <_>
          2 6 2 2 2.</_></rects>
      <tilted>0</tilted></_>
    <_>
      <rects>
        <_>
          0 4 6 3 -1.</_>
        <_>
          3 4 3 3 2.</_></rects>
      <tilted>0</tilted></_>
    <_>
      <rects>
        <_>
          0 4 8 4 -1.</_>
        <_>
          0 4 4 2 2.</_>
        <_>
          4 6 4 2 2.</_></rects>
      <tilted>0</tilted></_>
    <_>
      <rects>
        <_>
          0 4 6 2 -1.</_>
        <_>
          0 5 6 1 2.</_></rects>
      <tilted>0</tilted></_>
    <_>
      <rects>
        <_>
          0 5 1 2 -1.</_>
        <_>
          0 6 1 1 2.</_></rects>
      <tilted>0</tilted></_>
    <_>
      <rects>
        <_>
          0 5 1 3 -1.</_>
        <_>
          0 6 1 1 2.</_></rects>
      <tilted>0</tilted></_>
    <_>
      <rects>
        <_>
          0 5 2 2 -1.</_>
        <_>
          0 5 1 1 2.</_>
        <_>
          1 6 1 1 2.</_></rects>
      <tilted>0</tilted></_>
    <_>
      <rects>
        <_>
          0 5 3 2 -1.</_>
        <_>
          0 6 3 1 2.</_></rects>
      <tilted>0</tilted></_>
    <_>
      <rects>
        <_>
          0 5 6 3 -1.</_>
        <_>
          3 5 3 3 2.</_></rects>
      <tilted>0</tilted></_>
    <_>
      <rects>
        <_>
          0 6 2 1 -1.</_>
        <_>
          1 6 1 1 2.</_></rects>
      <tilted>0</tilted></_>
    <_>
      <rects>
        <_>
          0 6 4 1 -1.</_>
        <_>
          2 6 2 1 2.</_></rects>
      <tilted>0</tilted></_>
    <_>
      <rects>
        <_>
          0 6 4 2 -1.</_>
        <_>
          0 6 2 1 2.</_>
        <_>
          2 7 2 1 2.</_></rects>
      <tilted>0</tilted></_>
    <_>
      <rects>
        <_>
          0 6 6 1 -1.</_>
        <_>
          3 6 3 1 2.</_></rects>
      <tilted>0</tilted></_>
    <_>
      <rects>
        <_>
          0 6 4 2 -1.</_>
        <_>
          0 7 4 1 2.</_></rects>
      <tilted>0</tilted></_>
    <_>
      <rects>
        <_>
          0 7 2 1 -1.</_>
        <_>
          1 7 1 1 2.</_></rects>
      <tilted>0</tilted></_>
    <_>
      <rects>
        <_>
          1 0 2 1 -1.</_>
        <_>
          2 0 1 1 2.</_></rects>
      <tilted>0</tilted></_>
    <_>
      <rects>
        <_>
          1 0 1 6 -1.</_>
        <_>
          1 2 1 2 2.</_></rects>
      <tilted>0</tilted></_>
    <_>
      <rects>
        <_>
          1 0 3 5 -1.</_>
        <_>
          2 0 1 5 2.</_></rects>
      <tilted>0</tilted></_>
    <_>
      <rects>
        <_>
          1 0 4 1 -1.</_>
        <_>
          3 0 2 1 2.</_></rects>
      <tilted>0</tilted></_>
    <_>
      <rects>
        <_>
          1 0 6 2 -1.</_>
        <_>
          3 0 2 2 2.</_></rects>
      <tilted>0</tilted></_>
    <_>
      <rects>
        <_>
          1 0 5 4 -1.</_>
        <_>
          1 2 5 2 2.</_></rects>
      <tilted>0</tilted></_>
    <_>
      <rects>
        <_>
          1 0 5 6 -1.</_>
        <_>
          1 2 5 2 2.</_></rects>
      <tilted>0</tilted></_>
    <_>
      <rects>
        <_>
          1 0 6 8 -1.</_>
        <_>
          1 4 6 4 2.</_></rects>
      <tilted>0</tilted></_>
    <_>
      <rects>
        <_>
          1 1 1 2 -1.</_>
        <_>
          1 2 1 1 2.</_></rects>
      <tilted>0</tilted></_>
    <_>
      <rects>
        <_>
          1 1 2 2 -1.</_>
        <_>
          1 1 1 1 2.</_>
        <_>
          2 2 1 1 2.</_></rects>
      <tilted>0</tilted></_>
    <_>
      <rects>
        <_>
          1 1 2 6 -1.</_>
        <_>
          1 1 1 3 2.</_>
        <_>
          2 4 1 3 2.</_></rects>
      <tilted>0</tilted></_>
    <_>
      <rects>
        <_>
          1 1 3 7 -1.</_>
        <_>
          2 1 1 7 2.</_></rects>
      <tilted>0</tilted></_>
    <_>
      <rects>
        <_>
          1 1 2 4 -1.</_>
        <_>
          1 3 2 2 2.</_></rects>
      <tilted>0</tilted></_>
    <_>
      <rects>
        <_>
          1 1 2 6 -1.</_>
        <_>
          1 3 2 2 2.</_></rects>
      <tilted>0</tilted></_>
    <_>
      <rects>
        <_>
          1 1 4 4 -1.</_>
        <_>
          1 1 2 2 2.</_>
        <_>
          3 3 2 2 2.</_></rects>
      <tilted>0</tilted></_>
    <_>
      <rects>
        <_>
          1 1 3 2 -1.</_>
        <_>
          1 2 3 1 2.</_></rects>
      <tilted>0</tilted></_>
    <_>
      <rects>
        <_>
          1 1 3 3 -1.</_>
        <_>
          1 2 3 1 2.</_></rects>
      <tilted>0</tilted></_>
    <_>
      <rects>
        <_>
          1 1 6 3 -1.</_>
        <_>
          4 1 3 3 2.</_></rects>
      <tilted>0</tilted></_>
    <_>
      <rects>
        <_>
          1 1 6 5 -1.</_>
        <_>
          4 1 3 5 2.</_></rects>
      <tilted>0</tilted></_>
    <_>
      <rects>
        <_>
          1 1 6 2 -1.</_>
        <_>
          1 2 6 1 2.</_></rects>
      <tilted>0</tilted></_>
    <_>
      <rects>
        <_>
          1 2 1 2 -1.</_>
        <_>
          1 3 1 1 2.</_></rects>
      <tilted>0</tilted></_>
    <_>
      <rects>
        <_>
          1 2 6 1 -1.</_>
        <_>
          4 2 3 1 2.</_></rects>
      <tilted>0</tilted></_>
    <_>
      <rects>
        <_>
          1 2 6 5 -1.</_>
        <_>
          4 2 3 5 2.</_></rects>
      <tilted>0</tilted></_>
    <_>
      <rects>
        <_>
          1 2 5 3 -1.</_>
        <_>
          1 3 5 1 2.</_></rects>
      <tilted>0</tilted></_>
    <_>
      <rects>
        <_>
          1 2 5 6 -1.</_>
        <_>
          1 4 5 2 2.</_></rects>
      <tilted>0</tilted></_>
    <_>
      <rects>
        <_>
          1 2 7 3 -1.</_>
        <_>
          1 3 7 1 2.</_></rects>
      <tilted>0</tilted></_>
    <_>
      <rects>
        <_>
          1 2 7 4 -1.</_>
        <_>
          1 4 7 2 2.</_></rects>
      <tilted>0</tilted></_>
    <_>
      <rects>
        <_>
          1 3 1 3 -1.</_>
        <_>
          1 4 1 1 2.</_></rects>
      <tilted>0</tilted></_>
    <_>
      <rects>
        <_>
          1 3 2 2 -1.</_>
        <_>
          1 3 1 1 2.</_>
        <_>
          2 4 1 1 2.</_></rects>
      <tilted>0</tilted></_>
    <_>
      <rects>
        <_>
          1 3 2 3 -1.</_>
        <_>
          1 4 2 1 2.</_></rects>
      <tilted>0</tilted></_>
    <_>
      <rects>
        <_>
          1 3 6 4 -1.</_>
        <_>
          4 3 3 4 2.</_></rects>
      <tilted>0</tilted></_>
    <_>
      <rects>
        <_>
          1 4 2 4 -1.</_>
        <_>
          1 6 2 2 2.</_></rects>
      <tilted>0</tilted></_>
    <_>
      <rects>
        <_>
          1 5 2 2 -1.</_>
        <_>
          1 5 1 1 2.</_>
        <_>
          2 6 1 1 2.</_></rects>
      <tilted>0</tilted></_>
    <_>
      <rects>
        <_>
          1 5 2 3 -1.</_>
        <_>
          2 5 1 3 2.</_></rects>
      <tilted>0</tilted></_>
    <_>
      <rects>
        <_>
          1 5 6 1 -1.</_>
        <_>
          3 5 2 1 2.</_></rects>
      <tilted>0</tilted></_>
    <_>
      <rects>
        <_>
          1 5 4 3 -1.</_>
        <_>
          3 5 2 3 2.</_></rects>
      <tilted>0</tilted></_>
    <_>
      <rects>
        <_>
          1 5 6 3 -1.</_>
        <_>
          1 6 6 1 2.</_></rects>
      <tilted>0</tilted></_>
    <_>
      <rects>
        <_>
          1 6 2 2 -1.</_>
        <_>
          1 7 2 1 2.</_></rects>
      <tilted>0</tilted></_>
    <_>
      <rects>
        <_>
          1 6 6 2 -1.</_>
        <_>
          1 6 3 1 2.</_>
        <_>
          4 7 3 1 2.</_></rects>
      <tilted>0</tilted></_>
    <_>
      <rects>
        <_>
          1 6 7 2 -1.</_>
        <_>
          1 7 7 1 2.</_></rects>
      <tilted>0</tilted></_>
    <_>
      <rects>
        <_>
          2 0 2 2 -1.</_>
        <_>
          3 0 1 2 2.</_></rects>
      <tilted>0</tilted></_>
    <_>
      <rects>
        <_>
          2 0 1 4 -1.</_>
        <_>
          2 2 1 2 2.</_></rects>
      <tilted>0</tilted></_>
    <_>
      <rects>
        <_>
          2 0 3 3 -1.</_>
        <_>
          3 0 1 3 2.</_></rects>
      <tilted>0</tilted></_>
    <_>
      <rects>
        <_>
          2 0 3 4 -1.</_>
        <_>
          3 0 1 4 2.</_></rects>
      <tilted>0</tilted></_>
    <_>
      <rects>
        <_>
          2 0 4 1 -1.</_>
        <_>
          4 0 2 1 2.</_></rects>
      <tilted>0</tilted></_>
    <_>
      <rects>
        <_>
          2 0 6 1 -1.</_>
        <_>
          5 0 3 1 2.</_></rects>
      <tilted>0</tilted></_>
    <_>
      <rects>
        <_>
          2 0 3 3 -1.</_>
        <_>
          2 1 3 1 2.</_></rects>
      <tilted>0</tilted></_>
    <_>
      <rects>
        <_>
          2 0 6 4 -1.</_>
        <_>
          2 0 3 2 2.</_>
        <_>
          5 2 3 2 2.</_></rects>
      <tilted>0</tilted></_>
    <_>
      <rects>
        <_>
          2 0 5 2 -1.</_>
        <_>
          2 1 5 1 2.</_></rects>
      <tilted>0</tilted></_>
    <_>
      <rects>
        <_>
          2 1 3 6 -1.</_>
        <_>
          3 1 1 6 2.</_></rects>
      <tilted>0</tilted></_>
    <_>
      <rects>
        <_>
          2 1 6 1 -1.</_>
        <_>
          4 1 2 1 2.</_></rects>
      <tilted>0</tilted></_>
    <_>
      <rects>
        <_>
          2 1 2 3 -1.</_>
        <_>
          2 2 2 1 2.</_></rects>
      <tilted>0</tilted></_>
    <_>
      <rects>
