<?xml version="1.0"?>
<opencv_storage>
<stage3>
  <maxWeakCount>5</maxWeakCount>
  <stageThreshold>-7.4043285846710205e-01</stageThreshold>
  <weakClassifiers>
    <_>
      <internalNodes>
        0 -1 1869 -5.4322950541973114e-02</internalNodes>
      <leafValues>
        -5.3225809335708618e-01 9.4318181276321411e-01</leafValues></_>
    <_>
      <internalNodes>
        0 -1 724 7.3916628956794739e-02</internalNodes>
      <leafValues>
        6.2363642454147339e-01 -6.7101705074310303e-01</leafValues></_>
    <_>
      <internalNodes>
        0 -1 1001 -4.0258720517158508e-01</internalNodes>
      <leafValues>
        -8.2918667793273926e-01 5.8008867502212524e-01</leafValues></_>
    <_>
      <internalNodes>
        0 -1 1955 -5.6202918291091919e-02</internalNodes>
      <leafValues>
        -3.7641638517379761e-01 9.1356492042541504e-01</leafValues></_>
    <_>
      <internalNodes>
        0 -1 765 -2.6867443695664406e-02</internalNodes>
      <leafValues>
        3.7379187345504761e-01 -9.3181407451629639e-01</leafValues></_></weakClassifiers></stage3>
</opencv_storage>
