<?xml version="1.0"?>
<opencv_storage>
<stage36>
  <maxWeakCount>12</maxWeakCount>
  <stageThreshold>-8.1857174634933472e-01</stageThreshold>
  <weakClassifiers>
    <_>
      <internalNodes>
        0 -1 567 -8.8051462173461914e-01</internalNodes>
      <leafValues>
        -6.0000002384185791e-01 4.7692307829856873e-01</leafValues></_>
    <_>
      <internalNodes>
        0 -1 1562 1.1703222244977951e-01</internalNodes>
      <leafValues>
        -1.8694385886192322e-01 7.9067629575729370e-01</leafValues></_>
    <_>
      <internalNodes>
        0 -1 1831 -2.5327382609248161e-02</internalNodes>
      <leafValues>
        6.0337519645690918e-01 -2.0129910111427307e-01</leafValues></_>
    <_>
      <internalNodes>
        0 -1 1517 -4.9281744286417961e-03</internalNodes>
      <leafValues>
        6.7711102962493896e-01 -1.8383823335170746e-01</leafValues></_>
    <_>
      <internalNodes>
        0 -1 210 -3.7298521492630243e-03</internalNodes>
      <leafValues>
        6.0119336843490601e-01 -2.7673855423927307e-01</leafValues></_>
    <_>
      <internalNodes>
        0 -1 1705 1.0164759587496519e-03</internalNodes>
      <leafValues>
        2.9158806800842285e-01 -5.6550806760787964e-01</leafValues></_>
    <_>
      <internalNodes>
        0 -1 2053 1.0335730388760567e-02</internalNodes>
      <leafValues>
        -2.7051123976707458e-01 5.8653253316879272e-01</leafValues></_>
    <_>
      <internalNodes>
        0 -1 1429 -1.1943737044930458e-02</internalNodes>
      <leafValues>
        -1.5070968866348267e-01 7.5012040138244629e-01</leafValues></_>
    <_>
      <internalNodes>
        0 -1 243 -2.8078860044479370e-01</internalNodes>
      <leafValues>
        -1.2637211382389069e-01 8.3025729656219482e-01</leafValues></_>
    <_>
      <internalNodes>
        0 -1 1922 -4.8258658498525620e-03</internalNodes>
      <leafValues>
        5.5592483282089233e-01 -2.0274345576763153e-01</leafValues></_>
    <_>
      <internalNodes>
        0 -1 1910 -1.3240699190646410e-03</internalNodes>
      <leafValues>
        6.6298741102218628e-01 -1.4076112210750580e-01</leafValues></_>
    <_>
      <internalNodes>
        0 -1 2028 -1.7459781374782324e-03</internalNodes>
      <leafValues>
        -7.1301865577697754e-01 1.5283446013927460e-01</leafValues></_></weakClassifiers></stage36>
</opencv_storage>
