<?xml version="1.0"?>
<opencv_storage>
<stage28>
  <maxWeakCount>14</maxWeakCount>
  <stageThreshold>-8.0055147409439087e-01</stageThreshold>
  <weakClassifiers>
    <_>
      <internalNodes>
        0 -1 2030 -8.6840931326150894e-03</internalNodes>
      <leafValues>
        -6.2162160873413086e-01 4.6768060326576233e-01</leafValues></_>
    <_>
      <internalNodes>
        0 -1 935 -3.0784945935010910e-02</internalNodes>
      <leafValues>
        -3.9483612775802612e-01 3.0509057641029358e-01</leafValues></_>
    <_>
      <internalNodes>
        0 -1 1734 -2.0701555535197258e-02</internalNodes>
      <leafValues>
        -1.8584518134593964e-01 6.6962182521820068e-01</leafValues></_>
    <_>
      <internalNodes>
        0 -1 865 3.4346625208854675e-02</internalNodes>
      <leafValues>
        -1.9429631531238556e-01 7.0557504892349243e-01</leafValues></_>
    <_>
      <internalNodes>
        0 -1 2038 -1.5098825097084045e-02</internalNodes>
      <leafValues>
        1.3546833395957947e-01 -9.3801164627075195e-01</leafValues></_>
    <_>
      <internalNodes>
        0 -1 602 9.9758215248584747e-02</internalNodes>
      <leafValues>
        -2.3381219804286957e-01 6.5279823541641235e-01</leafValues></_>
    <_>
      <internalNodes>
        0 -1 1491 -3.0679471790790558e-02</internalNodes>
      <leafValues>
        -1.6763401031494141e-01 4.9406185746192932e-01</leafValues></_>
    <_>
      <internalNodes>
        0 -1 1997 2.0583054050803185e-02</internalNodes>
      <leafValues>
        -1.7267699539661407e-01 6.4039677381515503e-01</leafValues></_>
    <_>
      <internalNodes>
        0 -1 2014 -1.2000675313174725e-02</internalNodes>
      <leafValues>
        4.5596015453338623e-01 -2.3854823410511017e-01</leafValues></_>
    <_>
      <internalNodes>
        0 -1 210 5.4629510268568993e-03</internalNodes>
      <leafValues>
        -2.1246159076690674e-01 4.6677100658416748e-01</leafValues></_>
    <_>
      <internalNodes>
        0 -1 356 -1.9009146839380264e-02</internalNodes>
      <leafValues>
        6.3316363096237183e-01 -1.8056444823741913e-01</leafValues></_>
    <_>
      <internalNodes>
        0 -1 1463 -3.0227210372686386e-02</internalNodes>
      <leafValues>
        5.2333915233612061e-01 -1.7870621383190155e-01</leafValues></_>
    <_>
      <internalNodes>
        0 -1 1633 -2.4548377841711044e-02</internalNodes>
      <leafValues>
        9.0815705060958862e-01 -7.0860244333744049e-02</leafValues></_>
    <_>
      <internalNodes>
        0 -1 1906 -1.9131486769765615e-03</internalNodes>
      <leafValues>
        3.9124959707260132e-01 -2.5885301828384399e-01</leafValues></_></weakClassifiers></stage28>
</opencv_storage>
