<?xml version="1.0"?>
<opencv_storage>
<stage33>
  <maxWeakCount>12</maxWeakCount>
  <stageThreshold>-3.3662158250808716e-01</stageThreshold>
  <weakClassifiers>
    <_>
      <internalNodes>
        0 -1 1920 1.7799625173211098e-02</internalNodes>
      <leafValues>
        1.0204081982374191e-01 7.6923078298568726e-01</leafValues></_>
    <_>
      <internalNodes>
        0 -1 2053 1.0631386190652847e-02</internalNodes>
      <leafValues>
        -1.1235408484935760e-01 6.6710406541824341e-01</leafValues></_>
    <_>
      <internalNodes>
        0 -1 43 -3.4753859043121338e-02</internalNodes>
      <leafValues>
        2.6188859343528748e-01 -4.2916458845138550e-01</leafValues></_>
    <_>
      <internalNodes>
        0 -1 1705 -2.8986793477088213e-03</internalNodes>
      <leafValues>
        -3.3950704336166382e-01 3.5354971885681152e-01</leafValues></_>
    <_>
      <internalNodes>
        0 -1 1066 4.2787976562976837e-02</internalNodes>
      <leafValues>
        -1.4044894278049469e-01 9.2176795005798340e-01</leafValues></_>
    <_>
      <internalNodes>
        0 -1 474 -4.4088885188102722e-02</internalNodes>
      <leafValues>
        -9.1485494375228882e-01 1.4954921603202820e-01</leafValues></_>
    <_>
      <internalNodes>
        0 -1 1940 8.5737414658069611e-02</internalNodes>
      <leafValues>
        -1.6522037982940674e-01 6.0906732082366943e-01</leafValues></_>
    <_>
      <internalNodes>
        0 -1 342 -1.9678153097629547e-02</internalNodes>
      <leafValues>
        1.7308485507965088e-01 -6.9056993722915649e-01</leafValues></_>
    <_>
      <internalNodes>
        0 -1 30 1.9953783601522446e-02</internalNodes>
      <leafValues>
        -1.8335084617137909e-01 6.3065022230148315e-01</leafValues></_>
    <_>
      <internalNodes>
        0 -1 1402 -1.0128736495971680e-01</internalNodes>
      <leafValues>
        7.8470462560653687e-01 -1.4004637300968170e-01</leafValues></_>
    <_>
      <internalNodes>
        0 -1 327 2.4631697684526443e-02</internalNodes>
      <leafValues>
        -1.8012619018554688e-01 5.3812688589096069e-01</leafValues></_>
    <_>
      <internalNodes>
        0 -1 587 -3.1469576060771942e-02</internalNodes>
      <leafValues>
        4.0846684575080872e-01 -2.3868010938167572e-01</leafValues></_></weakClassifiers></stage33>
</opencv_storage>
